repo_new3/DataCodes3/362/b_362_13122_1.py,-0.8491865511971295 0.1405733074988879 -0.7885299477707506 -0.059661908234042174 -0.6344648489198301 0.6365343038839438 -1.0660684915776304 0.6871849145278307 0.7083737259508834 -1.0537123827708226 
repo_new3/DataCodes3/362/b_362_23128_1.py,-0.7950590636746988 0.219754267050811 -0.674170799531356 -0.07422873348915959 -0.7249249022598948 0.6399539166903444 -0.9355118579142526 0.754716983786311 0.7456556118559726 -1.1470108267693444 
repo_new3/DataCodes3/362/c_362_23128_2.py,-0.8565578834702636 0.1307255012659841 -0.7828176521888474 -0.07598750346296683 -0.6266896653092711 0.6378054025691365 -1.0799829947613862 0.6636722542240892 0.6863897614731068 -1.0706342173718633 
repo_new3/DataCodes3/362/b_362_15509_1.py,-0.8642256457491813 0.18828882404335118 -0.748679108747474 -0.05806327533837129 -0.7101766196172652 0.661032321929215 -1.0444863459600147 0.7581863076696783 0.7638546143720675 -1.1501356875425346 
repo_new3/DataCodes3/362/c_362_15509_2.py,-0.8565578834702636 0.1307255012659841 -0.7828176521888474 -0.07598750346296683 -0.6266896653092711 0.6378054025691365 -1.0799829947613862 0.6636722542240892 0.6863897614731068 -1.0706342173718633 
repo_new3/DataCodes3/362/b_362_14908_1.py,-0.7743725240910845 0.18387878049167752 -0.6600980259798548 -0.023971751902094933 -0.6448227691992159 0.6286849968359323 -0.980899710820185 0.6936222860915887 0.7052529056284863 -1.0516007088473447 
repo_new3/DataCodes3/362/c_362_14908_2.py,-0.8565578834702636 0.1307255012659841 -0.7828176521888474 -0.07598750346296683 -0.6266896653092711 0.6378054025691365 -1.0799829947613862 0.6636722542240892 0.6863897614731068 -1.0706342173718633 
repo_new3/DataCodes3/362/b_362_47553_1.py,-0.8326625812931489 0.20286867982185758 -0.7173195087042112 -0.06201655002327429 -0.7166880661723659 0.651108927399029 -0.9954241446430289 0.7593867194695808 0.7587562723519821 -1.1442594925388352 
repo_new3/DataCodes3/362/c_362_47553_2.py,-0.8326625812931489 0.20286867982185758 -0.7173195087042112 -0.06201655002327429 -0.7166880661723659 0.651108927399029 -0.9954241446430289 0.7593867194695808 0.7587562723519821 -1.1442594925388352 
repo_new3/DataCodes3/362/b_362_42466_1.py,-0.8504850364351689 0.21336927420201154 -0.7175360262594851 -0.04609175980972024 -0.7363627648836499 0.6621216256402863 -0.9901605650388697 0.7964027682742268 0.7868002229763424 -1.169101884181826 
repo_new3/DataCodes3/362/c_362_42466_2.py,-0.8565578834702636 0.1307255012659841 -0.7828176521888474 -0.07598750346296683 -0.6266896653092711 0.6378054025691365 -1.0799829947613862 0.6636722542240892 0.6863897614731068 -1.0706342173718633 
repo_new3/DataCodes3/362/b_362_49681_1.py,-0.81997734031304 0.20885835724265528 -0.7162235380509251 -0.06498120208965323 -0.7245883200256522 0.6424131507303578 -0.9634311372330046 0.7691478124739075 0.7642538036442794 -1.1331429537625737 
repo_new3/DataCodes3/362/c_362_49681_2.py,-0.8565578834702636 0.1307255012659841 -0.7828176521888474 -0.07598750346296683 -0.6266896653092711 0.6378054025691365 -1.0799829947613862 0.6636722542240892 0.6863897614731068 -1.0706342173718633 
repo_new3/DataCodes3/362/b_362_23662_1.py,-0.7944767071373809 0.22082915691664706 -0.6784282526084915 -0.06697893345619305 -0.7249444155928519 0.6391672035740249 -0.9353280549668169 0.7609891394902614 0.7524402877882598 -1.1383193552986977 
repo_new3/DataCodes3/362/c_362_23662_2.py,-0.8565578834702636 0.1307255012659841 -0.7828176521888474 -0.07598750346296683 -0.6266896653092711 0.6378054025691365 -1.0799829947613862 0.6636722542240892 0.6863897614731068 -1.0706342173718633 
repo_new3/DataCodes3/362/b_362_18405_1.py,-0.8092133672337543 0.2077343161231738 -0.6537237844303176 -0.06426206246383884 -0.7115069309860519 0.6373076998245912 -0.944893494941393 0.744398315978485 0.7330782451659132 -1.1532247354008616 
repo_new3/DataCodes3/362/c_362_18405_2.py,-0.8565578834702636 0.1307255012659841 -0.7828176521888474 -0.07598750346296683 -0.6266896653092711 0.6378054025691365 -1.0799829947613862 0.6636722542240892 0.6863897614731068 -1.0706342173718633 
repo_new3/DataCodes3/362/b_362_27865_1.py,-0.7944767071373809 0.22082915691664706 -0.6784282526084915 -0.06697893345619305 -0.7249444155928519 0.6391672035740249 -0.9353280549668169 0.7609891394902614 0.7524402877882598 -1.1383193552986977 
repo_new3/DataCodes3/362/c_362_27865_2.py,-0.8565578834702636 0.1307255012659841 -0.7828176521888474 -0.07598750346296683 -0.6266896653092711 0.6378054025691365 -1.0799829947613862 0.6636722542240892 0.6863897614731068 -1.0706342173718633 
repo_new3/DataCodes3/362/b_362_43876_1.py,-0.8565578834702636 0.1307255012659841 -0.7828176521888474 -0.07598750346296683 -0.6266896653092711 0.6378054025691365 -1.0799829947613862 0.6636722542240892 0.6863897614731068 -1.0706342173718633 
repo_new3/DataCodes3/362/c_362_43876_2.py,-0.8565578834702636 0.1307255012659841 -0.7828176521888474 -0.07598750346296683 -0.6266896653092711 0.6378054025691365 -1.0799829947613862 0.6636722542240892 0.6863897614731068 -1.0706342173718633 
repo_new3/DataCodes3/362/b_362_3777_1.py,-0.8725037201911082 0.12036599312177505 -0.7682795098948619 -0.0470519485327008 -0.6161539070977956 0.6467141338480386 -1.1317959751956719 0.6531651555679001 0.6854477947364941 -1.0723992516085528 
repo_new3/DataCodes3/362/c_362_3777_2.py,-0.8565578834702636 0.1307255012659841 -0.7828176521888474 -0.07598750346296683 -0.6266896653092711 0.6378054025691365 -1.0799829947613862 0.6636722542240892 0.6863897614731068 -1.0706342173718633 
repo_new3/DataCodes3/362/b_362_28251_1.py,-0.7944767071373809 0.22082915691664706 -0.6784282526084915 -0.06697893345619305 -0.7249444155928519 0.6391672035740249 -0.9353280549668169 0.7609891394902614 0.7524402877882598 -1.1383193552986977 
repo_new3/DataCodes3/362/c_362_28251_2.py,-0.8565578834702636 0.1307255012659841 -0.7828176521888474 -0.07598750346296683 -0.6266896653092711 0.6378054025691365 -1.0799829947613862 0.6636722542240892 0.6863897614731068 -1.0706342173718633 
repo_new3/DataCodes3/362/b_362_12856_1.py,-0.81997734031304 0.20885835724265528 -0.7162235380509251 -0.06498120208965323 -0.7245883200256522 0.6424131507303578 -0.9634311372330046 0.7691478124739075 0.7642538036442794 -1.1331429537625737 
repo_new3/DataCodes3/362/c_362_12856_2.py,-0.8565578834702636 0.1307255012659841 -0.7828176521888474 -0.07598750346296683 -0.6266896653092711 0.6378054025691365 -1.0799829947613862 0.6636722542240892 0.6863897614731068 -1.0706342173718633 
repo_new3/DataCodes3/362/c_362_2325_1.py,-0.8565578834702636 0.1307255012659841 -0.7828176521888474 -0.07598750346296683 -0.6266896653092711 0.6378054025691365 -1.0799829947613862 0.6636722542240892 0.6863897614731068 -1.0706342173718633 
repo_new3/DataCodes3/362/b_362_35933_1.py,-0.842573238463839 0.1384461097786122 -0.640973060852602 0.07367885860878176 -0.6082513557344366 0.5427192438259452 -0.9076009412320662 0.760974429873522 0.7517601711728211 -0.9420723111592513 
repo_new3/DataCodes3/362/c_362_35933_2.py,-0.8565578834702636 0.1307255012659841 -0.7828176521888474 -0.07598750346296683 -0.6266896653092711 0.6378054025691365 -1.0799829947613862 0.6636722542240892 0.6863897614731068 -1.0706342173718633 
repo_new3/DataCodes3/362/c_362_20616_1.py,-0.7865736892882772 0.22221953113253515 -0.6811122571811044 -0.06862399639158236 -0.728396740601495 0.6273878089594721 -0.9074102297696993 0.7696051963502489 0.7589839988498149 -1.1199324709402134 
repo_new3/DataCodes3/362/c_362_25731_1.py,-0.8725037201911082 0.12036599312177505 -0.7682795098948619 -0.0470519485327008 -0.6161539070977956 0.6467141338480386 -1.1317959751956719 0.6531651555679001 0.6854477947364941 -1.0723992516085528 
repo_new3/DataCodes3/362/c_362_23109_1.py,-0.8565578834702636 0.1307255012659841 -0.7828176521888474 -0.07598750346296683 -0.6266896653092711 0.6378054025691365 -1.0799829947613862 0.6636722542240892 0.6863897614731068 -1.0706342173718633 
repo_new3/DataCodes3/362/c_362_8947_1.py,-0.8565578834702636 0.1307255012659841 -0.7828176521888474 -0.07598750346296683 -0.6266896653092711 0.6378054025691365 -1.0799829947613862 0.6636722542240892 0.6863897614731068 -1.0706342173718633 
repo_new3/DataCodes3/362/b_362_10035_1.py,-0.7944767071373809 0.22082915691664706 -0.6784282526084915 -0.06697893345619305 -0.7249444155928519 0.6391672035740249 -0.9353280549668169 0.7609891394902614 0.7524402877882598 -1.1383193552986977 
repo_new3/DataCodes3/362/c_362_10035_2.py,-0.8565578834702636 0.1307255012659841 -0.7828176521888474 -0.07598750346296683 -0.6266896653092711 0.6378054025691365 -1.0799829947613862 0.6636722542240892 0.6863897614731068 -1.0706342173718633 
repo_new3/DataCodes3/362/c_362_19722_1.py,-0.8565578834702636 0.1307255012659841 -0.7828176521888474 -0.07598750346296683 -0.6266896653092711 0.6378054025691365 -1.0799829947613862 0.6636722542240892 0.6863897614731068 -1.0706342173718633 
repo_new3/DataCodes3/362/b_362_31372_1.py,-0.7865736892882772 0.22221953113253515 -0.6811122571811044 -0.06862399639158236 -0.728396740601495 0.6273878089594721 -0.9074102297696993 0.7696051963502489 0.7589839988498149 -1.1199324709402134 
repo_new3/DataCodes3/362/c_362_31372_2.py,-0.8565578834702636 0.1307255012659841 -0.7828176521888474 -0.07598750346296683 -0.6266896653092711 0.6378054025691365 -1.0799829947613862 0.6636722542240892 0.6863897614731068 -1.0706342173718633 
repo_new3/DataCodes3/362/b_362_953_1.py,-0.7944767071373809 0.22082915691664706 -0.6784282526084915 -0.06697893345619305 -0.7249444155928519 0.6391672035740249 -0.9353280549668169 0.7609891394902614 0.7524402877882598 -1.1383193552986977 
repo_new3/DataCodes3/362/c_362_953_2.py,-0.8565578834702636 0.1307255012659841 -0.7828176521888474 -0.07598750346296683 -0.6266896653092711 0.6378054025691365 -1.0799829947613862 0.6636722542240892 0.6863897614731068 -1.0706342173718633 
repo_new3/DataCodes3/362/b_362_33129_1.py,-0.7743725240910845 0.18387878049167752 -0.6600980259798548 -0.023971751902094933 -0.6448227691992159 0.6286849968359323 -0.980899710820185 0.6936222860915887 0.7052529056284863 -1.0516007088473447 
repo_new3/DataCodes3/362/c_362_33129_2.py,-0.8565578834702636 0.1307255012659841 -0.7828176521888474 -0.07598750346296683 -0.6266896653092711 0.6378054025691365 -1.0799829947613862 0.6636722542240892 0.6863897614731068 -1.0706342173718633 
repo_new3/DataCodes3/362/c_362_38450_1.py,-0.838441993679641 0.16641225843356347 -0.7857947847289795 -0.11907726098587826 -0.6821942772935989 0.6514258527249707 -1.027401234212311 0.6966657663842722 0.7071239695013066 -1.1276361271735345 
repo_new3/DataCodes3/362/c_362_18494_1.py,-0.8565578834702636 0.1307255012659841 -0.7828176521888474 -0.07598750346296683 -0.6266896653092711 0.6378054025691365 -1.0799829947613862 0.6636722542240892 0.6863897614731068 -1.0706342173718633 
repo_new3/DataCodes3/362/b_362_43408_1.py,-0.7944767071373809 0.22082915691664706 -0.6784282526084915 -0.06697893345619305 -0.7249444155928519 0.6391672035740249 -0.9353280549668169 0.7609891394902614 0.7524402877882598 -1.1383193552986977 
repo_new3/DataCodes3/362/c_362_43408_2.py,-0.8565578834702636 0.1307255012659841 -0.7828176521888474 -0.07598750346296683 -0.6266896653092711 0.6378054025691365 -1.0799829947613862 0.6636722542240892 0.6863897614731068 -1.0706342173718633 
repo_new3/DataCodes3/362/c_362_14142_1.py,-0.8565578834702636 0.1307255012659841 -0.7828176521888474 -0.07598750346296683 -0.6266896653092711 0.6378054025691365 -1.0799829947613862 0.6636722542240892 0.6863897614731068 -1.0706342173718633 
repo_new3/DataCodes3/362/c_362_26134_1.py,-0.8565578834702636 0.1307255012659841 -0.7828176521888474 -0.07598750346296683 -0.6266896653092711 0.6378054025691365 -1.0799829947613862 0.6636722542240892 0.6863897614731068 -1.0706342173718633 
repo_new3/DataCodes3/362/c_362_17026_1.py,-0.8565578834702636 0.1307255012659841 -0.7828176521888474 -0.07598750346296683 -0.6266896653092711 0.6378054025691365 -1.0799829947613862 0.6636722542240892 0.6863897614731068 -1.0706342173718633 
repo_new3/DataCodes3/362/b_362_48317_1.py,-0.7944767071373809 0.22082915691664706 -0.6784282526084915 -0.06697893345619305 -0.7249444155928519 0.6391672035740249 -0.9353280549668169 0.7609891394902614 0.7524402877882598 -1.1383193552986977 
repo_new3/DataCodes3/362/c_362_48317_2.py,-0.8565578834702636 0.1307255012659841 -0.7828176521888474 -0.07598750346296683 -0.6266896653092711 0.6378054025691365 -1.0799829947613862 0.6636722542240892 0.6863897614731068 -1.0706342173718633 
repo_new3/DataCodes3/362/b_362_24985_1.py,-0.7944767071373809 0.22082915691664706 -0.6784282526084915 -0.06697893345619305 -0.7249444155928519 0.6391672035740249 -0.9353280549668169 0.7609891394902614 0.7524402877882598 -1.1383193552986977 
repo_new3/DataCodes3/362/c_362_39111_1.py,-0.838441993679641 0.16641225843356347 -0.7857947847289795 -0.11907726098587826 -0.6821942772935989 0.6514258527249707 -1.027401234212311 0.6966657663842722 0.7071239695013066 -1.1276361271735345 
repo_new3/DataCodes3/362/b_362_16548_1.py,-0.7950590636746988 0.219754267050811 -0.674170799531356 -0.07422873348915959 -0.7249249022598948 0.6399539166903444 -0.9355118579142526 0.754716983786311 0.7456556118559726 -1.1470108267693444 
repo_new3/DataCodes3/362/c_362_16548_2.py,-0.8565578834702636 0.1307255012659841 -0.7828176521888474 -0.07598750346296683 -0.6266896653092711 0.6378054025691365 -1.0799829947613862 0.6636722542240892 0.6863897614731068 -1.0706342173718633 
repo_new3/DataCodes3/362/b_362_21470_1.py,-0.8848148967683584 0.16394030200125545 -0.7570428847464452 -0.08508350221072884 -0.6887318199721226 0.6623136455115043 -1.0803390553497918 0.7160656494869844 0.7261996704304944 -1.1688997761233118 
repo_new3/DataCodes3/362/c_362_21470_2.py,-0.8565578834702636 0.1307255012659841 -0.7828176521888474 -0.07598750346296683 -0.6266896653092711 0.6378054025691365 -1.0799829947613862 0.6636722542240892 0.6863897614731068 -1.0706342173718633 
repo_new3/DataCodes3/362/b_362_38932_1.py,-0.7944767071373809 0.22082915691664706 -0.6784282526084915 -0.06697893345619305 -0.7249444155928519 0.6391672035740249 -0.9353280549668169 0.7609891394902614 0.7524402877882598 -1.1383193552986977 
repo_new3/DataCodes3/362/c_362_38932_2.py,-0.8565578834702636 0.1307255012659841 -0.7828176521888474 -0.07598750346296683 -0.6266896653092711 0.6378054025691365 -1.0799829947613862 0.6636722542240892 0.6863897614731068 -1.0706342173718633 
repo_new3/DataCodes3/362/b_362_1204_1.py,-0.7944767071373809 0.22082915691664706 -0.6784282526084915 -0.06697893345619305 -0.7249444155928519 0.6391672035740249 -0.9353280549668169 0.7609891394902614 0.7524402877882598 -1.1383193552986977 
repo_new3/DataCodes3/362/c_362_1204_2.py,-0.8565578834702636 0.1307255012659841 -0.7828176521888474 -0.07598750346296683 -0.6266896653092711 0.6378054025691365 -1.0799829947613862 0.6636722542240892 0.6863897614731068 -1.0706342173718633 
repo_new3/DataCodes3/362/c_362_44350_1.py,-0.8565578834702636 0.1307255012659841 -0.7828176521888474 -0.07598750346296683 -0.6266896653092711 0.6378054025691365 -1.0799829947613862 0.6636722542240892 0.6863897614731068 -1.0706342173718633 
repo_new3/DataCodes3/362/b_362_28996_1.py,-0.7944767071373809 0.22082915691664706 -0.6784282526084915 -0.06697893345619305 -0.7249444155928519 0.6391672035740249 -0.9353280549668169 0.7609891394902614 0.7524402877882598 -1.1383193552986977 
repo_new3/DataCodes3/362/c_362_28996_2.py,-0.8565578834702636 0.1307255012659841 -0.7828176521888474 -0.07598750346296683 -0.6266896653092711 0.6378054025691365 -1.0799829947613862 0.6636722542240892 0.6863897614731068 -1.0706342173718633 
repo_new3/DataCodes3/362/c_362_2778_1.py,-0.8565578834702636 0.1307255012659841 -0.7828176521888474 -0.07598750346296683 -0.6266896653092711 0.6378054025691365 -1.0799829947613862 0.6636722542240892 0.6863897614731068 -1.0706342173718633 
repo_new3/DataCodes3/362/b_362_40805_1.py,-0.7944767071373809 0.22082915691664706 -0.6784282526084915 -0.06697893345619305 -0.7249444155928519 0.6391672035740249 -0.9353280549668169 0.7609891394902614 0.7524402877882598 -1.1383193552986977 
repo_new3/DataCodes3/362/c_362_40805_2.py,-0.8565578834702636 0.1307255012659841 -0.7828176521888474 -0.07598750346296683 -0.6266896653092711 0.6378054025691365 -1.0799829947613862 0.6636722542240892 0.6863897614731068 -1.0706342173718633 
repo_new3/DataCodes3/362/b_362_38441_1.py,-0.7944767071373809 0.22082915691664706 -0.6784282526084915 -0.06697893345619305 -0.7249444155928519 0.6391672035740249 -0.9353280549668169 0.7609891394902614 0.7524402877882598 -1.1383193552986977 
repo_new3/DataCodes3/362/c_362_38441_2.py,-0.8565578834702636 0.1307255012659841 -0.7828176521888474 -0.07598750346296683 -0.6266896653092711 0.6378054025691365 -1.0799829947613862 0.6636722542240892 0.6863897614731068 -1.0706342173718633 
repo_new3/DataCodes3/362/c_362_9279_1.py,-0.8565578834702636 0.1307255012659841 -0.7828176521888474 -0.07598750346296683 -0.6266896653092711 0.6378054025691365 -1.0799829947613862 0.6636722542240892 0.6863897614731068 -1.0706342173718633 
repo_new3/DataCodes3/362/b_362_21342_1.py,-0.8092133672337543 0.2077343161231738 -0.6537237844303176 -0.06426206246383884 -0.7115069309860519 0.6373076998245912 -0.944893494941393 0.744398315978485 0.7330782451659132 -1.1532247354008616 
repo_new3/DataCodes3/362/c_362_21342_2.py,-0.8565578834702636 0.1307255012659841 -0.7828176521888474 -0.07598750346296683 -0.6266896653092711 0.6378054025691365 -1.0799829947613862 0.6636722542240892 0.6863897614731068 -1.0706342173718633 
repo_new3/DataCodes3/362/b_362_43172_1.py,-0.8328975161967344 0.2100230686270793 -0.663358200859069 0.0005054790209744796 -0.7125513486627617 0.6394618118522227 -0.9546224648289924 0.7983067022513486 0.7828795753384141 -1.1241094184171732 
repo_new3/DataCodes3/362/c_362_43172_2.py,-0.8565578834702636 0.1307255012659841 -0.7828176521888474 -0.07598750346296683 -0.6266896653092711 0.6378054025691365 -1.0799829947613862 0.6636722542240892 0.6863897614731068 -1.0706342173718633 
repo_new3/DataCodes3/362/b_362_39130_1.py,-0.8951998095463172 0.17920107405494595 -0.784401998811793 -0.062301601534002014 -0.7077025638089675 0.6819271832556459 -1.1111146920361716 0.7524462208002936 0.767955580739055 -1.1725992544832835 
repo_new3/DataCodes3/362/c_362_39130_2.py,-0.8565578834702636 0.1307255012659841 -0.7828176521888474 -0.07598750346296683 -0.6266896653092711 0.6378054025691365 -1.0799829947613862 0.6636722542240892 0.6863897614731068 -1.0706342173718633 
repo_new3/DataCodes3/362/b_362_28887_1.py,-0.8761717206123233 0.18036169522967715 -0.7585936895726173 -0.10009030980766617 -0.7121408018441873 0.6683140635612504 -1.0560833234222766 0.7329723404981393 0.7373741931840784 -1.1910363094992993 
repo_new3/DataCodes3/362/c_362_28887_2.py,-0.7706043979616293 0.2241513879689733 -0.6607216444565226 -0.13859294999700203 -0.7432067089777924 0.6175469358099386 -0.8471628686312257 0.7413748100983051 0.7182962811378413 -1.1667497927028943 
repo_new3/DataCodes3/362/c_362_10087_1.py,-0.8565578834702636 0.1307255012659841 -0.7828176521888474 -0.07598750346296683 -0.6266896653092711 0.6378054025691365 -1.0799829947613862 0.6636722542240892 0.6863897614731068 -1.0706342173718633 
repo_new3/DataCodes3/362/c_362_11073_1.py,-0.8565578834702636 0.1307255012659841 -0.7828176521888474 -0.07598750346296683 -0.6266896653092711 0.6378054025691365 -1.0799829947613862 0.6636722542240892 0.6863897614731068 -1.0706342173718633 
repo_new3/DataCodes3/362/b_362_22357_1.py,-0.7979892224971854 0.21526955415295956 -0.6727971716687801 -0.03984616087162284 -0.7174247845431646 0.628469370499656 -0.9335428649071974 0.7715404081589482 0.7654199408106322 -1.1072251651016682 
repo_new3/DataCodes3/362/c_362_22357_2.py,-0.8565578834702636 0.1307255012659841 -0.7828176521888474 -0.07598750346296683 -0.6266896653092711 0.6378054025691365 -1.0799829947613862 0.6636722542240892 0.6863897614731068 -1.0706342173718633 
repo_new3/DataCodes3/362/c_362_26547_1.py,-0.8565578834702636 0.1307255012659841 -0.7828176521888474 -0.07598750346296683 -0.6266896653092711 0.6378054025691365 -1.0799829947613862 0.6636722542240892 0.6863897614731068 -1.0706342173718633 
repo_new3/DataCodes3/362/b_362_47144_1.py,-0.7944767071373809 0.22082915691664706 -0.6784282526084915 -0.06697893345619305 -0.7249444155928519 0.6391672035740249 -0.9353280549668169 0.7609891394902614 0.7524402877882598 -1.1383193552986977 
repo_new3/DataCodes3/362/c_362_47144_2.py,-0.8565578834702636 0.1307255012659841 -0.7828176521888474 -0.07598750346296683 -0.6266896653092711 0.6378054025691365 -1.0799829947613862 0.6636722542240892 0.6863897614731068 -1.0706342173718633 
repo_new3/DataCodes3/362/b_362_35664_1.py,-0.7865736892882772 0.22221953113253515 -0.6811122571811044 -0.06862399639158236 -0.728396740601495 0.6273878089594721 -0.9074102297696993 0.7696051963502489 0.7589839988498149 -1.1199324709402134 
repo_new3/DataCodes3/362/c_362_35664_2.py,-0.8565578834702636 0.1307255012659841 -0.7828176521888474 -0.07598750346296683 -0.6266896653092711 0.6378054025691365 -1.0799829947613862 0.6636722542240892 0.6863897614731068 -1.0706342173718633 
repo_new3/DataCodes3/362/b_362_10196_1.py,-0.8357246830875158 0.23376089794595717 -0.6702543848444057 -0.027113294001554874 -0.7543388644369001 0.6594118079890802 -0.9400833422668288 0.8249333140499677 0.8020320450398235 -1.1826394852653324 
repo_new3/DataCodes3/362/c_362_10196_2.py,-0.8565578834702636 0.1307255012659841 -0.7828176521888474 -0.07598750346296683 -0.6266896653092711 0.6378054025691365 -1.0799829947613862 0.6636722542240892 0.6863897614731068 -1.0706342173718633 
repo_new3/DataCodes3/362/c_362_19822_1.py,-0.8565578834702636 0.1307255012659841 -0.7828176521888474 -0.07598750346296683 -0.6266896653092711 0.6378054025691365 -1.0799829947613862 0.6636722542240892 0.6863897614731068 -1.0706342173718633 
repo_new3/DataCodes3/371/b_371_19822_1.py,-0.7591539592097397 0.11306759122266219 -0.6094857844506483 0.003262839360875222 -0.5805995582342912 0.5624610458461654 -0.957997047624201 0.6386184286947982 0.6375277998224631 -0.9815856807030818 
repo_new3/DataCodes3/371/c_371_19822_2.py,-0.7591539592097397 0.11306759122266219 -0.6094857844506483 0.003262839360875222 -0.5805995582342912 0.5624610458461654 -0.957997047624201 0.6386184286947982 0.6375277998224631 -0.9815856807030818 
repo_new3/DataCodes3/362/c_362_7075_1.py,-0.8565578834702636 0.1307255012659841 -0.7828176521888474 -0.07598750346296683 -0.6266896653092711 0.6378054025691365 -1.0799829947613862 0.6636722542240892 0.6863897614731068 -1.0706342173718633 
repo_new3/DataCodes3/371/b_371_7075_1.py,-0.6716920939235614 0.06660508923917678 -0.5624812075883735 -0.025083146031135223 -0.49531685166925143 0.5015732995796136 -0.9136911372765222 0.5251335537962571 0.5301587554812611 -0.884059181795505 
repo_new3/DataCodes3/371/b_371_7075_2.py,-0.7298598868338161 0.09599204406303267 -0.6132267155412023 -0.031175074316395376 -0.5555001450991165 0.542990498135769 -0.9478972924022299 0.590546250340772 0.5937632251942013 -0.958531563080544 
repo_new3/DataCodes3/371/b_371_7075_3.py,-0.7298598868338161 0.09599204406303267 -0.6132267155412023 -0.031175074316395376 -0.5555001450991165 0.542990498135769 -0.9478972924022299 0.590546250340772 0.5937632251942013 -0.958531563080544 
repo_new3/DataCodes3/371/c_371_7075_4.py,-0.7298298924788416 0.10699974551448646 -0.6014397324938114 -0.004584689152211304 -0.5651930952161388 0.5402758120596005 -0.9139456614371959 0.6221387597495516 0.616480657262699 -0.9435587248409768 
repo_new3/DataCodes3/362/c_362_2292_1.py,-0.8565578834702636 0.1307255012659841 -0.7828176521888474 -0.07598750346296683 -0.6266896653092711 0.6378054025691365 -1.0799829947613862 0.6636722542240892 0.6863897614731068 -1.0706342173718633 
repo_new3/DataCodes3/371/c_371_2292_1.py,-0.7387825474147364 0.10810132852428339 -0.6059448850597264 -0.006203349106538225 -0.5685423087489666 0.5488154658564899 -0.9302435236731975 0.6251554444040345 0.6211280473983878 -0.9573131837706836 
repo_new3/DataCodes3/362/c_362_3031_1.py,-0.8565578834702636 0.1307255012659841 -0.7828176521888474 -0.07598750346296683 -0.6266896653092711 0.6378054025691365 -1.0799829947613862 0.6636722542240892 0.6863897614731068 -1.0706342173718633 
repo_new3/DataCodes3/371/b_371_3031_1.py,-0.7340013952335226 0.11229185095303194 -0.5943292572952327 -0.002800286179169233 -0.5729170383323122 0.5445327169341175 -0.9343586547416929 0.6214512422251939 0.6247208970954085 -0.9528636614449116 
repo_new3/DataCodes3/371/b_371_3031_2.py,-0.7775179371710915 0.12962311636796608 -0.6354477735239006 -0.021138466747249295 -0.6240946421019629 0.5783684111044297 -0.9526524062293666 0.6708427060547391 0.6657696178379591 -1.029570443334485 
repo_new3/DataCodes3/371/b_371_3031_3.py,-0.783435353356944 0.12412087641358951 -0.6323772678434966 -0.00046787903747224095 -0.6154485796503716 0.5746596570243234 -0.9579678883982304 0.6764770581114409 0.671374168407488 -1.0139622623813949 
repo_new3/DataCodes3/371/b_371_3031_4.py,-0.7811824611778885 0.12515818679059124 -0.6350616275978783 -0.005031828294491926 -0.6142022233891328 0.5809691222750605 -0.9725743515498613 0.6691150731037244 0.6673128331589396 -1.0211911808506564 
repo_new3/DataCodes3/371/b_371_3031_5.py,-0.7745605207410302 0.11970976711518917 -0.630192706768053 -0.013756424828720299 -0.6058167502460758 0.5764524351476235 -0.9736951560238207 0.6511589519384529 0.6518947394895469 -1.0165422130854995 
repo_new3/DataCodes3/371/b_371_3031_6.py,-0.7679676578201353 0.1161114422718581 -0.629633791875303 -0.019577769187111006 -0.5988890487564823 0.5724530524186351 -0.9750862170332093 0.6378757389131152 0.6417136824058906 -1.0079462278277491 
repo_new3/DataCodes3/371/c_371_3031_7.py,-0.7745605207410302 0.11970976711518917 -0.630192706768053 -0.013756424828720299 -0.6058167502460758 0.5764524351476235 -0.9736951560238207 0.6511589519384529 0.6518947394895469 -1.0165422130854995 
repo_new3/DataCodes3/362/b_362_37461_1.py,-0.8343522435053141 0.20134970367133959 -0.7146287351930968 -0.06845878638958709 -0.7164257049044445 0.6521897835125542 -0.9974150265924762 0.7536399516275983 0.75278341539861 -1.1523501907513078 
repo_new3/DataCodes3/362/c_362_37461_2.py,-0.8565578834702636 0.1307255012659841 -0.7828176521888474 -0.07598750346296683 -0.6266896653092711 0.6378054025691365 -1.0799829947613862 0.6636722542240892 0.6863897614731068 -1.0706342173718633 
repo_new3/DataCodes3/371/b_371_37461_1.py,-0.730651016963715 0.11258512874348925 -0.5877637408926892 -0.004723948136691864 -0.5660734024485908 0.5435188511368663 -0.9353868103780513 0.6153567010783304 0.6192173137467474 -0.9517122219784341 
repo_new3/DataCodes3/371/b_371_37461_2.py,-0.7450769232297959 0.12324667955371157 -0.5943938393385387 -0.0012154927220840073 -0.5814632545064281 0.5606439690753074 -0.9554404140867929 0.6326848388362425 0.6373932638255569 -0.9786226509184434 
repo_new3/DataCodes3/371/b_371_37461_3.py,-0.7337749329025309 0.11450743751563698 -0.5894875059597177 -0.004898734814073935 -0.5681865349660835 0.5515456437655485 -0.9490302966073846 0.6161030534233101 0.6208634039269543 -0.9640620965714529 
repo_new3/DataCodes3/371/c_371_37461_4.py,-0.7591539592097397 0.11306759122266219 -0.6094857844506483 0.003262839360875222 -0.5805995582342912 0.5624610458461654 -0.957997047624201 0.6386184286947982 0.6375277998224631 -0.9815856807030818 
repo_new3/DataCodes3/362/b_362_43192_1.py,-0.7944767071373809 0.22082915691664706 -0.6784282526084915 -0.06697893345619305 -0.7249444155928519 0.6391672035740249 -0.9353280549668169 0.7609891394902614 0.7524402877882598 -1.1383193552986977 
repo_new3/DataCodes3/362/c_362_43192_2.py,-0.8565578834702636 0.1307255012659841 -0.7828176521888474 -0.07598750346296683 -0.6266896653092711 0.6378054025691365 -1.0799829947613862 0.6636722542240892 0.6863897614731068 -1.0706342173718633 
repo_new3/DataCodes3/371/b_371_43192_1.py,-0.7298298924788416 0.10699974551448646 -0.6014397324938114 -0.004584689152211304 -0.5651930952161388 0.5402758120596005 -0.9139456614371959 0.6221387597495516 0.616480657262699 -0.9435587248409768 
repo_new3/DataCodes3/371/b_371_43192_2.py,-0.7298298924788416 0.10699974551448646 -0.6014397324938114 -0.004584689152211304 -0.5651930952161388 0.5402758120596005 -0.9139456614371959 0.6221387597495516 0.616480657262699 -0.9435587248409768 
repo_new3/DataCodes3/371/b_371_43192_3.py,-0.7298298924788416 0.10699974551448646 -0.6014397324938114 -0.004584689152211304 -0.5651930952161388 0.5402758120596005 -0.9139456614371959 0.6221387597495516 0.616480657262699 -0.9435587248409768 
repo_new3/DataCodes3/371/c_371_43192_4.py,-0.7298298924788416 0.10699974551448646 -0.6014397324938114 -0.004584689152211304 -0.5651930952161388 0.5402758120596005 -0.9139456614371959 0.6221387597495516 0.616480657262699 -0.9435587248409768 
repo_new3/DataCodes3/362/b_362_26685_1.py,-0.8947328769790821 0.12592662230017931 -0.8650871869583081 -0.12545939100905398 -0.6537442200407698 0.659170046423633 -1.1305784868026736 0.6696664407318865 0.6991593910667788 -1.1154276557908456 
repo_new3/DataCodes3/362/c_362_26685_2.py,-0.8565578834702636 0.1307255012659841 -0.7828176521888474 -0.07598750346296683 -0.6266896653092711 0.6378054025691365 -1.0799829947613862 0.6636722542240892 0.6863897614731068 -1.0706342173718633 
repo_new3/DataCodes3/371/c_371_26685_1.py,-0.7387825474147364 0.10810132852428339 -0.6059448850597264 -0.006203349106538221 -0.5685423087489667 0.5488154658564899 -0.9302435236731975 0.6251554444040345 0.6211280473983878 -0.9573131837706836 
repo_new3/DataCodes3/362/b_362_45724_1.py,-0.7944767071373809 0.22082915691664706 -0.6784282526084915 -0.06697893345619305 -0.7249444155928519 0.6391672035740249 -0.9353280549668169 0.7609891394902614 0.7524402877882598 -1.1383193552986977 
repo_new3/DataCodes3/362/c_362_45724_2.py,-0.8565578834702636 0.1307255012659841 -0.7828176521888474 -0.07598750346296683 -0.6266896653092711 0.6378054025691365 -1.0799829947613862 0.6636722542240892 0.6863897614731068 -1.0706342173718633 
repo_new3/DataCodes3/371/b_371_45724_1.py,-0.7591539592097397 0.11306759122266219 -0.6094857844506483 0.003262839360875222 -0.5805995582342912 0.5624610458461654 -0.957997047624201 0.6386184286947982 0.6375277998224631 -0.9815856807030818 
repo_new3/DataCodes3/371/b_371_45724_2.py,-0.7591539592097397 0.11306759122266219 -0.6094857844506483 0.003262839360875222 -0.5805995582342912 0.5624610458461654 -0.957997047624201 0.6386184286947982 0.6375277998224631 -0.9815856807030818 
repo_new3/DataCodes3/371/c_371_45724_3.py,-0.7591539592097397 0.11306759122266219 -0.6094857844506483 0.003262839360875222 -0.5805995582342912 0.5624610458461654 -0.957997047624201 0.6386184286947982 0.6375277998224631 -0.9815856807030818 
repo_new3/DataCodes3/362/b_362_16092_1.py,-0.7952996838272337 0.216205157543723 -0.67205431795213 -0.056476004237917016 -0.7210664847668612 0.6267638866341794 -0.9147730074321287 0.7685205793064138 0.7564700398112103 -1.1196974702400582 
repo_new3/DataCodes3/362/c_362_16092_2.py,-0.8565578834702636 0.1307255012659841 -0.7828176521888474 -0.07598750346296683 -0.6266896653092711 0.6378054025691365 -1.0799829947613862 0.6636722542240892 0.6863897614731068 -1.0706342173718633 
repo_new3/DataCodes3/371/b_371_16092_1.py,-0.7564165819293169 0.09678877342150284 -0.6667913165430368 -0.026426523728364428 -0.5596900529001549 0.5603020231601368 -0.9993991423169472 0.6069797950778941 0.6214300603262324 -0.9524069478363868 
repo_new3/DataCodes3/371/b_371_16092_2.py,-0.7545775073381732 0.09669125046521854 -0.6627290372601232 -0.007381533881539502 -0.5481172484373867 0.5564808124846918 -0.9999535583041023 0.6104032522343497 0.6245603262891025 -0.9356836602029873 
repo_new3/DataCodes3/371/b_371_16092_3.py,-0.7545775073381732 0.09669125046521854 -0.6627290372601232 -0.007381533881539502 -0.5481172484373867 0.5564808124846918 -0.9999535583041023 0.6104032522343497 0.6245603262891025 -0.9356836602029873 
repo_new3/DataCodes3/371/b_371_16092_4.py,-0.7564165819293169 0.09678877342150284 -0.6667913165430368 -0.026426523728364428 -0.5596900529001549 0.5603020231601368 -0.9993991423169472 0.6069797950778941 0.6214300603262324 -0.9524069478363868 
repo_new3/DataCodes3/371/b_371_16092_5.py,-0.7621241653944324 0.10081014805095447 -0.6633688108499496 -0.000718010640175839 -0.5560471864453655 0.561058789344506 -0.9983612513049716 0.6256081590849025 0.6362142856362779 -0.94552323402323 
repo_new3/DataCodes3/371/b_371_16092_6.py,-0.7621241653944324 0.10081014805095447 -0.6633688108499496 -0.000718010640175839 -0.5560471864453655 0.561058789344506 -0.9983612513049716 0.6256081590849025 0.6362142856362779 -0.94552323402323 
repo_new3/DataCodes3/371/c_371_16092_7.py,-0.7502742636929944 0.10159467869604734 -0.6219673260623262 -0.003282935123894999 -0.555140712805231 0.5559923151158066 -0.9735236982970052 0.6166948069977637 0.6191242703813464 -0.9658736306777241 
repo_new3/DataCodes3/362/b_362_32294_1.py,-0.8655429118166112 0.1674899738094937 -0.757892199510155 -0.05446345562662122 -0.6848354423230285 0.6431169813494867 -1.0457359425786783 0.737884714551437 0.7469371883228687 -1.1110315798202575 
repo_new3/DataCodes3/362/c_362_32294_2.py,-0.8565578834702636 0.1307255012659841 -0.7828176521888474 -0.07598750346296683 -0.6266896653092711 0.6378054025691365 -1.0799829947613862 0.6636722542240892 0.6863897614731068 -1.0706342173718633 
repo_new3/DataCodes3/371/c_371_32294_1.py,-0.7298298924788416 0.10699974551448646 -0.6014397324938114 -0.004584689152211304 -0.5651930952161388 0.5402758120596005 -0.9139456614371959 0.6221387597495516 0.616480657262699 -0.9435587248409768 
repo_new3/DataCodes3/362/b_362_43309_1.py,-0.7944767071373809 0.22082915691664706 -0.6784282526084915 -0.06697893345619305 -0.7249444155928519 0.6391672035740249 -0.9353280549668169 0.7609891394902614 0.7524402877882598 -1.1383193552986977 
repo_new3/DataCodes3/362/c_362_43309_2.py,-0.8565578834702636 0.1307255012659841 -0.7828176521888474 -0.07598750346296683 -0.6266896653092711 0.6378054025691365 -1.0799829947613862 0.6636722542240892 0.6863897614731068 -1.0706342173718633 
repo_new3/DataCodes3/371/b_371_43309_1.py,-0.7282311120924643 0.08154242520034706 -0.6232144613339853 -0.014326633925044671 -0.532930507156679 0.5305501071161962 -0.9512753467920655 0.5828822015712254 0.5877369359593916 -0.9220323160672816 
repo_new3/DataCodes3/371/b_371_43309_2.py,-0.7282311120924643 0.08154242520034706 -0.6232144613339853 -0.014326633925044671 -0.532930507156679 0.5305501071161962 -0.9512753467920655 0.5828822015712254 0.5877369359593916 -0.9220323160672816 
repo_new3/DataCodes3/371/b_371_43309_3.py,-0.6316124521677754 0.036677360560319276 -0.5443097358630732 -0.03576417025712905 -0.4513389937056993 0.4585242978664931 -0.8675992240539443 0.47395133097685016 0.4773519642161431 -0.8161080457810146 
repo_new3/DataCodes3/371/b_371_43309_4.py,-0.7298298924788416 0.10699974551448646 -0.6014397324938114 -0.004584689152211304 -0.5651930952161388 0.5402758120596005 -0.9139456614371959 0.6221387597495516 0.616480657262699 -0.9435587248409768 
repo_new3/DataCodes3/371/b_371_43309_5.py,-0.7298298924788416 0.10699974551448646 -0.6014397324938114 -0.004584689152211304 -0.5651930952161388 0.5402758120596005 -0.9139456614371959 0.6221387597495516 0.616480657262699 -0.9435587248409768 
repo_new3/DataCodes3/371/c_371_43309_6.py,-0.7298298924788416 0.10699974551448646 -0.6014397324938114 -0.004584689152211304 -0.5651930952161388 0.5402758120596005 -0.9139456614371959 0.6221387597495516 0.616480657262699 -0.9435587248409768 
repo_new3/DataCodes3/362/b_362_7621_1.py,-0.8683694913616071 0.1680804798842285 -0.7722227439541058 -0.12367074363384135 -0.7023316105946013 0.6511557600439771 -1.0317033130041815 0.7141685380391541 0.7167730015562536 -1.1712202630923152 
repo_new3/DataCodes3/362/c_362_7621_2.py,-0.8565578834702636 0.1307255012659841 -0.7828176521888474 -0.07598750346296683 -0.6266896653092711 0.6378054025691365 -1.0799829947613862 0.6636722542240892 0.6863897614731068 -1.0706342173718633 
repo_new3/DataCodes3/371/b_371_7621_1.py,-0.7387825474147364 0.10810132852428339 -0.6059448850597264 -0.006203349106538221 -0.5685423087489667 0.5488154658564899 -0.9302435236731975 0.6251554444040345 0.6211280473983878 -0.9573131837706836 
repo_new3/DataCodes3/371/b_371_7621_2.py,-0.7387825474147364 0.10810132852428339 -0.6059448850597264 -0.006203349106538221 -0.5685423087489667 0.5488154658564899 -0.9302435236731975 0.6251554444040345 0.6211280473983878 -0.9573131837706836 
repo_new3/DataCodes3/371/c_371_7621_3.py,-0.7387825474147364 0.10810132852428339 -0.6059448850597264 -0.006203349106538221 -0.5685423087489667 0.5488154658564899 -0.9302435236731975 0.6251554444040345 0.6211280473983878 -0.9573131837706836 
repo_new3/DataCodes3/362/b_362_45391_1.py,-0.8565578834702636 0.1307255012659841 -0.7828176521888474 -0.07598750346296683 -0.6266896653092711 0.6378054025691365 -1.0799829947613862 0.6636722542240892 0.6863897614731068 -1.0706342173718633 
repo_new3/DataCodes3/362/c_362_45391_2.py,-0.8565578834702636 0.1307255012659841 -0.7828176521888474 -0.07598750346296683 -0.6266896653092711 0.6378054025691365 -1.0799829947613862 0.6636722542240892 0.6863897614731068 -1.0706342173718633 
repo_new3/DataCodes3/371/c_371_45391_1.py,-0.7298298924788416 0.10699974551448646 -0.6014397324938114 -0.004584689152211304 -0.5651930952161388 0.5402758120596005 -0.9139456614371959 0.6221387597495516 0.616480657262699 -0.9435587248409768 
repo_new3/DataCodes3/362/b_362_25896_1.py,-0.8466160642858258 0.20030537828137718 -0.7376529567986054 -0.053178436603887276 -0.720039372344995 0.6529237410969585 -1.0062346717563895 0.7736419142067413 0.7736050253354726 -1.1398839179276568 
repo_new3/DataCodes3/362/c_362_25896_2.py,-0.8565578834702636 0.1307255012659841 -0.7828176521888474 -0.07598750346296683 -0.6266896653092711 0.6378054025691365 -1.0799829947613862 0.6636722542240892 0.6863897614731068 -1.0706342173718633 
repo_new3/DataCodes3/371/c_371_25896_1.py,-0.7387825474147364 0.10810132852428339 -0.6059448850597264 -0.006203349106538221 -0.5685423087489667 0.5488154658564899 -0.9302435236731975 0.6251554444040345 0.6211280473983878 -0.9573131837706836 
repo_new3/DataCodes3/362/b_362_35126_1.py,-0.7963756656497895 0.2119330854108168 -0.6780411678206676 -0.06275942695379051 -0.7056219069470867 0.6437456131407571 -0.9739891099862473 0.7365031175074508 0.7379013424484963 -1.1313192740432898 
repo_new3/DataCodes3/362/c_362_35126_2.py,-0.8565578834702636 0.1307255012659841 -0.7828176521888474 -0.07598750346296683 -0.6266896653092711 0.6378054025691365 -1.0799829947613862 0.6636722542240892 0.6863897614731068 -1.0706342173718633 
repo_new3/DataCodes3/371/b_371_35126_1.py,-0.730651016963715 0.11258512874348925 -0.5877637408926892 -0.004723948136691864 -0.5660734024485908 0.5435188511368663 -0.9353868103780513 0.6153567010783304 0.6192173137467474 -0.9517122219784341 
repo_new3/DataCodes3/371/b_371_35126_2.py,-0.7450769232297959 0.12324667955371157 -0.5943938393385387 -0.0012154927220840073 -0.5814632545064281 0.5606439690753074 -0.9554404140867929 0.6326848388362425 0.6373932638255569 -0.9786226509184434 
repo_new3/DataCodes3/371/b_371_35126_3.py,-0.7337749329025309 0.11450743751563698 -0.5894875059597177 -0.004898734814073935 -0.5681865349660835 0.5515456437655485 -0.9490302966073846 0.6161030534233101 0.6208634039269543 -0.9640620965714529 
repo_new3/DataCodes3/371/c_371_35126_4.py,-0.7591539592097397 0.11306759122266219 -0.6094857844506483 0.003262839360875222 -0.5805995582342912 0.5624610458461654 -0.957997047624201 0.6386184286947982 0.6375277998224631 -0.9815856807030818 
repo_new3/DataCodes3/362/b_362_38946_1.py,-0.8330977547777686 0.24190817476782003 -0.6817023808527479 -0.032877448184299884 -0.7655269504458068 0.6625956219655053 -0.9271792076209987 0.8388023155299272 0.8120810076659946 -1.1886747108003988 
repo_new3/DataCodes3/362/c_362_38946_2.py,-0.8200432589207035 0.2143595735216863 -0.7225420561023963 -0.07408091278003608 -0.7290790365732581 0.6540694424501166 -0.9819153448979044 0.764918117680116 0.7636531332645963 -1.1505940578357456 
repo_new3/DataCodes3/371/b_371_38946_1.py,-0.7242103064515938 0.09934093105255948 -0.5905353261439258 0.00777577009920211 -0.5431719502326914 0.5375093976174474 -0.9464034508976008 0.5996006176635451 0.6042021454423122 -0.9310653482931135 
repo_new3/DataCodes3/371/b_371_38946_2.py,-0.7540216580048559 0.09922538631975447 -0.6139000500358432 -0.0011927009430887858 -0.5545142844640838 0.5534001111925538 -0.9819387410887651 0.6064578006114243 0.6148760636217985 -0.9588663470374156 
repo_new3/DataCodes3/371/b_371_38946_3.py,-0.7667014494016279 0.12812668523559825 -0.6169456314036119 -0.011667368045244151 -0.610051749392181 0.5731208628349195 -0.9568160601560337 0.6536929013291634 0.6524168450736946 -1.014184164278596 
repo_new3/DataCodes3/371/c_371_38946_4.py,-0.7298298924788416 0.10699974551448646 -0.6014397324938114 -0.004584689152211304 -0.5651930952161388 0.5402758120596005 -0.9139456614371959 0.6221387597495516 0.616480657262699 -0.9435587248409768 
repo_new3/DataCodes3/362/b_362_47587_1.py,-0.834352243505314 0.20134970367133959 -0.7146287351930968 -0.06845878638958709 -0.7164257049044445 0.6521897835125542 -0.9974150265924762 0.7536399516275983 0.75278341539861 -1.152350190751308 
repo_new3/DataCodes3/362/c_362_47587_2.py,-0.8565578834702636 0.1307255012659841 -0.7828176521888474 -0.07598750346296683 -0.6266896653092711 0.6378054025691365 -1.0799829947613862 0.6636722542240892 0.6863897614731068 -1.0706342173718633 
repo_new3/DataCodes3/371/b_371_47587_1.py,-0.7745605207410302 0.11970976711518917 -0.630192706768053 -0.013756424828720299 -0.6058167502460758 0.5764524351476235 -0.9736951560238207 0.6511589519384529 0.6518947394895469 -1.0165422130854995 
repo_new3/DataCodes3/371/c_371_47587_2.py,-0.7745605207410302 0.11970976711518917 -0.630192706768053 -0.013756424828720299 -0.6058167502460758 0.5764524351476235 -0.9736951560238207 0.6511589519384529 0.6518947394895469 -1.0165422130854995 
repo_new3/DataCodes3/362/b_362_48127_1.py,-0.9073762366007071 0.15635177569820935 -0.8077491612630212 -0.10982487916158412 -0.6992212124223247 0.6679269546481663 -1.094504396504794 0.7227050236332295 0.732784193597783 -1.1822677738637777 
repo_new3/DataCodes3/362/c_362_48127_2.py,-0.8326625812931489 0.20286867982185758 -0.7173195087042112 -0.06201655002327429 -0.7166880661723659 0.651108927399029 -0.9954241446430289 0.7593867194695808 0.7587562723519821 -1.1442594925388352 
repo_new3/DataCodes3/371/b_371_48127_1.py,-0.7282311120924643 0.08154242520034706 -0.6232144613339853 -0.014326633925044671 -0.532930507156679 0.5305501071161962 -0.9512753467920655 0.5828822015712254 0.5877369359593916 -0.9220323160672816 
repo_new3/DataCodes3/371/b_371_48127_2.py,-0.7282311120924643 0.08154242520034706 -0.6232144613339853 -0.014326633925044671 -0.532930507156679 0.5305501071161962 -0.9512753467920655 0.5828822015712254 0.5877369359593916 -0.9220323160672816 
repo_new3/DataCodes3/371/b_371_48127_3.py,-0.6316124521677754 0.036677360560319276 -0.5443097358630732 -0.03576417025712905 -0.4513389937056993 0.4585242978664931 -0.8675992240539443 0.47395133097685016 0.4773519642161431 -0.8161080457810146 
repo_new3/DataCodes3/371/b_371_48127_4.py,-0.7298298924788416 0.10699974551448646 -0.6014397324938114 -0.004584689152211304 -0.5651930952161388 0.5402758120596005 -0.9139456614371959 0.6221387597495516 0.616480657262699 -0.9435587248409768 
repo_new3/DataCodes3/371/b_371_48127_5.py,-0.7298298924788416 0.10699974551448646 -0.6014397324938114 -0.004584689152211304 -0.5651930952161388 0.5402758120596005 -0.9139456614371959 0.6221387597495516 0.616480657262699 -0.9435587248409768 
repo_new3/DataCodes3/371/c_371_48127_6.py,-0.7298298924788416 0.10699974551448646 -0.6014397324938114 -0.004584689152211304 -0.5651930952161388 0.5402758120596005 -0.9139456614371959 0.6221387597495516 0.616480657262699 -0.9435587248409768 
repo_new3/DataCodes3/362/b_362_19709_1.py,-0.8222030503301104 0.1940821702046163 -0.7199200549953152 -0.08363804863942359 -0.7089485732449977 0.6358138501794707 -0.9692337306895964 0.7409649835674582 0.7379027247527233 -1.1307123119712992 
repo_new3/DataCodes3/362/c_362_19709_2.py,-0.8565578834702636 0.1307255012659841 -0.7828176521888474 -0.07598750346296683 -0.6266896653092711 0.6378054025691365 -1.0799829947613862 0.6636722542240892 0.6863897614731068 -1.0706342173718633 
repo_new3/DataCodes3/371/b_371_19709_1.py,-0.7591539592097397 0.11306759122266219 -0.6094857844506483 0.003262839360875222 -0.5805995582342912 0.5624610458461654 -0.957997047624201 0.6386184286947982 0.6375277998224631 -0.9815856807030818 
repo_new3/DataCodes3/371/b_371_19709_2.py,-0.7591539592097397 0.11306759122266219 -0.6094857844506483 0.003262839360875222 -0.5805995582342912 0.5624610458461654 -0.957997047624201 0.6386184286947982 0.6375277998224631 -0.9815856807030818 
repo_new3/DataCodes3/371/c_371_19709_3.py,-0.7591539592097397 0.11306759122266219 -0.6094857844506483 0.003262839360875222 -0.5805995582342912 0.5624610458461654 -0.957997047624201 0.6386184286947982 0.6375277998224631 -0.9815856807030818 
repo_new3/DataCodes3/362/b_362_11211_1.py,-0.7944767071373809 0.22082915691664706 -0.6784282526084915 -0.06697893345619305 -0.7249444155928519 0.6391672035740249 -0.9353280549668169 0.7609891394902614 0.7524402877882598 -1.1383193552986977 
repo_new3/DataCodes3/362/c_362_11211_2.py,-0.8565578834702636 0.1307255012659841 -0.7828176521888474 -0.07598750346296683 -0.6266896653092711 0.6378054025691365 -1.0799829947613862 0.6636722542240892 0.6863897614731068 -1.0706342173718633 
repo_new3/DataCodes3/371/b_371_11211_1.py,-0.7387825474147364 0.10810132852428339 -0.6059448850597264 -0.006203349106538221 -0.5685423087489667 0.5488154658564899 -0.9302435236731975 0.6251554444040345 0.6211280473983878 -0.9573131837706836 
repo_new3/DataCodes3/371/c_371_11211_2.py,-0.7387825474147364 0.10810132852428339 -0.6059448850597264 -0.006203349106538221 -0.5685423087489667 0.5488154658564899 -0.9302435236731975 0.6251554444040345 0.6211280473983878 -0.9573131837706836 
repo_new3/DataCodes3/362/b_362_45316_1.py,-0.7950590636746988 0.219754267050811 -0.674170799531356 -0.07422873348915959 -0.7249249022598948 0.6399539166903444 -0.9355118579142526 0.754716983786311 0.7456556118559726 -1.1470108267693444 
repo_new3/DataCodes3/362/c_362_45316_2.py,-0.8565578834702636 0.1307255012659841 -0.7828176521888474 -0.07598750346296683 -0.6266896653092711 0.6378054025691365 -1.0799829947613862 0.6636722542240892 0.6863897614731068 -1.0706342173718633 
repo_new3/DataCodes3/371/b_371_45316_1.py,-0.7712342840829792 0.12497530190860574 -0.625287414157499 -0.014325206824106766 -0.6080547131007356 0.5796808371815346 -0.9757327228288554 0.6493932245984886 0.6514558182216534 -1.021454377365164 
repo_new3/DataCodes3/371/b_371_45316_2.py,-0.7591539592097397 0.11306759122266219 -0.6094857844506483 0.003262839360875222 -0.5805995582342912 0.5624610458461654 -0.957997047624201 0.6386184286947982 0.6375277998224631 -0.9815856807030818 
repo_new3/DataCodes3/371/c_371_45316_3.py,-0.7591539592097397 0.11306759122266219 -0.6094857844506483 0.003262839360875222 -0.5805995582342912 0.5624610458461654 -0.957997047624201 0.6386184286947982 0.6375277998224631 -0.9815856807030818 
repo_new3/DataCodes3/362/b_362_8188_1.py,-0.7944767071373809 0.22082915691664706 -0.6784282526084915 -0.06697893345619305 -0.7249444155928519 0.6391672035740249 -0.9353280549668169 0.7609891394902614 0.7524402877882598 -1.1383193552986977 
repo_new3/DataCodes3/362/c_362_8188_2.py,-0.8565578834702636 0.1307255012659841 -0.7828176521888474 -0.07598750346296683 -0.6266896653092711 0.6378054025691365 -1.0799829947613862 0.6636722542240892 0.6863897614731068 -1.0706342173718633 
repo_new3/DataCodes3/371/b_371_8188_1.py,-0.7384472794961329 0.10675914179336539 -0.5967747342560428 -0.00637399727180751 -0.5806029292767138 0.5434314902600297 -0.9297551921733433 0.6205069917006228 0.6216659044019134 -0.9599397940525437 
repo_new3/DataCodes3/371/b_371_8188_2.py,-0.7384472794961329 0.10675914179336539 -0.5967747342560428 -0.00637399727180751 -0.5806029292767138 0.5434314902600297 -0.9297551921733433 0.6205069917006228 0.6216659044019134 -0.9599397940525437 
repo_new3/DataCodes3/371/b_371_8188_3.py,-0.7384472794961329 0.10675914179336539 -0.5967747342560428 -0.00637399727180751 -0.5806029292767139 0.5434314902600296 -0.9297551921733433 0.6205069917006228 0.6216659044019135 -0.9599397940525437 
repo_new3/DataCodes3/371/b_371_8188_4.py,-0.7520282925885707 0.11765447547020164 -0.6026145035452227 -0.0028083752170775826 -0.5946318208299 0.5602455030455692 -0.9498534103782692 0.6371325557631157 0.639323467743215 -0.9857420320461527 
repo_new3/DataCodes3/371/b_371_8188_5.py,-0.7520282925885707 0.11765447547020164 -0.6026145035452227 -0.0028083752170775826 -0.5946318208299 0.5602455030455692 -0.9498534103782692 0.6371325557631157 0.639323467743215 -0.9857420320461527 
repo_new3/DataCodes3/371/c_371_8188_6.py,-0.7591539592097397 0.11306759122266219 -0.6094857844506483 0.003262839360875222 -0.5805995582342912 0.5624610458461654 -0.957997047624201 0.6386184286947982 0.6375277998224631 -0.9815856807030818 
repo_new3/DataCodes3/362/b_362_38752_1.py,-0.8092133672337543 0.2077343161231738 -0.6537237844303176 -0.06426206246383884 -0.7115069309860519 0.6373076998245912 -0.944893494941393 0.744398315978485 0.7330782451659132 -1.1532247354008616 
repo_new3/DataCodes3/362/c_362_38752_2.py,-0.8565578834702636 0.1307255012659841 -0.7828176521888474 -0.07598750346296683 -0.6266896653092711 0.6378054025691365 -1.0799829947613862 0.6636722542240892 0.6863897614731068 -1.0706342173718633 
repo_new3/DataCodes3/371/b_371_38752_1.py,-0.7282311120924643 0.08154242520034706 -0.6232144613339853 -0.014326633925044671 -0.532930507156679 0.5305501071161962 -0.9512753467920655 0.5828822015712254 0.5877369359593916 -0.9220323160672816 
repo_new3/DataCodes3/371/b_371_38752_2.py,-0.7282311120924643 0.08154242520034706 -0.6232144613339853 -0.014326633925044671 -0.532930507156679 0.5305501071161962 -0.9512753467920655 0.5828822015712254 0.5877369359593916 -0.9220323160672816 
repo_new3/DataCodes3/371/b_371_38752_3.py,-0.6316124521677754 0.036677360560319276 -0.5443097358630732 -0.03576417025712905 -0.4513389937056993 0.4585242978664931 -0.8675992240539443 0.47395133097685016 0.4773519642161431 -0.8161080457810146 
repo_new3/DataCodes3/371/b_371_38752_4.py,-0.7298298924788416 0.10699974551448646 -0.6014397324938114 -0.004584689152211304 -0.5651930952161388 0.5402758120596005 -0.9139456614371959 0.6221387597495516 0.616480657262699 -0.9435587248409768 
repo_new3/DataCodes3/371/b_371_38752_5.py,-0.7298298924788416 0.10699974551448646 -0.6014397324938114 -0.004584689152211304 -0.5651930952161388 0.5402758120596005 -0.9139456614371959 0.6221387597495516 0.616480657262699 -0.9435587248409768 
repo_new3/DataCodes3/371/c_371_38752_6.py,-0.7298298924788416 0.10699974551448646 -0.6014397324938114 -0.004584689152211304 -0.5651930952161388 0.5402758120596005 -0.9139456614371959 0.6221387597495516 0.616480657262699 -0.9435587248409768 
repo_new3/DataCodes3/362/b_362_25738_1.py,-0.8947328769790821 0.12592662230017931 -0.8650871869583081 -0.12545939100905398 -0.6537442200407698 0.659170046423633 -1.1305784868026736 0.6696664407318865 0.6991593910667788 -1.1154276557908456 
repo_new3/DataCodes3/362/c_362_25738_2.py,-0.8565578834702636 0.1307255012659841 -0.7828176521888474 -0.07598750346296683 -0.6266896653092711 0.6378054025691365 -1.0799829947613862 0.6636722542240892 0.6863897614731068 -1.0706342173718633 
repo_new3/DataCodes3/371/b_371_25738_1.py,-0.7664358657453216 0.10784065923260269 -0.6444874545416416 -0.033688359417337804 -0.5973085327181803 0.5566634748493641 -0.9474435759026136 0.6345890448444292 0.6337219544043038 -0.9899840369053965 
repo_new3/DataCodes3/371/b_371_25738_2.py,-0.7896030868795864 0.08995968980201445 -0.6772681410706989 -0.02672059443363766 -0.5789366525674823 0.5560936834945412 -0.9720937340599519 0.6352865472336983 0.6351418108855564 -0.9719915146887 
repo_new3/DataCodes3/371/b_371_25738_3.py,-0.6917460192768291 0.04227336846116128 -0.5948636258468742 -0.021197343099392068 -0.4737885397942462 0.49398940690091286 -0.9420929396859395 0.512296815149207 0.5220991253790046 -0.8602023911048267 
repo_new3/DataCodes3/371/b_371_25738_4.py,-0.7198469178051372 0.06959118067121872 -0.5767767040114361 0.02753043161150891 -0.49394864449807624 0.5036402089884157 -0.9089478104964928 0.5812038462805763 0.5755202513826466 -0.8596435611242278 
repo_new3/DataCodes3/371/b_371_25738_5.py,-0.7902479895293717 0.12047851015988041 -0.662186820129951 -0.03221331594254589 -0.6207133039328617 0.5749881375976166 -0.961517827277999 0.6645187789042211 0.6612837546804098 -1.022633844566137 
repo_new3/DataCodes3/371/b_371_25738_6.py,-0.7782528489994888 0.12400748314089953 -0.637863511345069 -0.02010130037808565 -0.6154218385965242 0.5711752619969378 -0.9527217262400138 0.6613002762296752 0.6577885515431868 -1.0148658416137977 
repo_new3/DataCodes3/371/c_371_25738_7.py,-0.764448987962597 0.118198875354158 -0.6248731972155862 -0.01188820102465401 -0.6011496591177465 0.5670476549501291 -0.956090226166882 0.6472353752792435 0.6461943079621285 -1.0008496571032184 
repo_new3/DataCodes3/362/b_362_12008_1.py,-0.8092133672337543 0.2077343161231738 -0.6537237844303176 -0.06426206246383884 -0.7115069309860519 0.6373076998245912 -0.944893494941393 0.744398315978485 0.7330782451659132 -1.1532247354008616 
repo_new3/DataCodes3/362/c_362_12008_2.py,-0.8565578834702636 0.1307255012659841 -0.7828176521888474 -0.07598750346296683 -0.6266896653092711 0.6378054025691365 -1.0799829947613862 0.6636722542240892 0.6863897614731068 -1.0706342173718633 
repo_new3/DataCodes3/371/b_371_12008_1.py,-0.7111526324062571 0.09026247764934585 -0.5834876818126256 0.009285371965732208 -0.5282630322662659 0.517948478525532 -0.8970170844254404 0.5978620911163073 0.5916510492180596 -0.8923907574583558 
repo_new3/DataCodes3/371/b_371_12008_2.py,-0.7111526324062571 0.09026247764934585 -0.5834876818126256 0.009285371965732208 -0.5282630322662659 0.517948478525532 -0.8970170844254404 0.5978620911163073 0.5916510492180596 -0.8923907574583558 
repo_new3/DataCodes3/371/b_371_12008_3.py,-0.7233613284306195 0.10346926186956994 -0.6008913551311031 -0.010296280501951584 -0.5583960054950141 0.5363518318940456 -0.9153104960078793 0.6091059824490777 0.6064915492508343 -0.9351248044236259 
repo_new3/DataCodes3/371/b_371_12008_4.py,-0.7233613284306195 0.10346926186956994 -0.6008913551311031 -0.010296280501951584 -0.5583960054950141 0.5363518318940456 -0.9153104960078793 0.6091059824490777 0.6064915492508343 -0.9351248044236259 
repo_new3/DataCodes3/371/c_371_12008_5.py,-0.7298298924788416 0.10699974551448646 -0.6014397324938114 -0.004584689152211304 -0.5651930952161388 0.5402758120596005 -0.9139456614371959 0.6221387597495516 0.616480657262699 -0.9435587248409768 
repo_new3/DataCodes3/362/b_362_44584_1.py,-0.8081399910747907 0.24599490394925655 -0.7062094103149315 -0.054059416910874986 -0.759427358539513 0.6635555363007429 -0.9446738559214461 0.8152219037732996 0.8036370035008854 -1.1658597633488423 
repo_new3/DataCodes3/362/c_362_44584_2.py,-0.8565578834702636 0.1307255012659841 -0.7828176521888474 -0.07598750346296683 -0.6266896653092711 0.6378054025691365 -1.0799829947613862 0.6636722542240892 0.6863897614731068 -1.0706342173718633 
repo_new3/DataCodes3/371/b_371_44584_1.py,-0.7298298924788416 0.10699974551448646 -0.6014397324938114 -0.004584689152211304 -0.5651930952161388 0.5402758120596005 -0.9139456614371959 0.6221387597495516 0.616480657262699 -0.9435587248409768 
repo_new3/DataCodes3/371/c_371_44584_2.py,-0.7298298924788416 0.10699974551448646 -0.6014397324938114 -0.004584689152211304 -0.5651930952161388 0.5402758120596005 -0.9139456614371959 0.6221387597495516 0.616480657262699 -0.9435587248409768 
repo_new3/DataCodes3/362/c_362_39804_1.py,-0.7865736892882772 0.22221953113253515 -0.6811122571811044 -0.06862399639158236 -0.728396740601495 0.6273878089594721 -0.9074102297696993 0.7696051963502489 0.7589839988498149 -1.1199324709402134 
repo_new3/DataCodes3/371/b_371_39804_1.py,-0.6316124521677754 0.036677360560319276 -0.5443097358630732 -0.03576417025712905 -0.4513389937056993 0.4585242978664931 -0.8675992240539443 0.47395133097685016 0.4773519642161431 -0.8161080457810146 
repo_new3/DataCodes3/371/b_371_39804_2.py,-0.636505232620947 0.04351172155635519 -0.5539087737305474 -0.03134609968175883 -0.4602709020023089 0.46411679629025293 -0.8695821705582658 0.48885300961021955 0.4922307513943116 -0.8192462332710374 
repo_new3/DataCodes3/371/b_371_39804_3.py,-0.6641852836713004 0.08486318923435704 -0.543530012378097 -0.0007838314165553736 -0.49789710649300584 0.5016255629059011 -0.8795232085645619 0.5509406452781968 0.5478123184980047 -0.868023083869089 
repo_new3/DataCodes3/371/b_371_39804_4.py,-0.7839971428245246 0.12168771068466477 -0.6231766730289585 0.006890988940373403 -0.6023905133278494 0.5841391065098023 -0.9971092419444328 0.6571927577594506 0.6611978966668938 -1.019097485356246 
repo_new3/DataCodes3/371/c_371_39804_5.py,-0.7839971428245246 0.12168771068466477 -0.6231766730289585 0.006890988940373403 -0.6023905133278494 0.5841391065098023 -0.9971092419444328 0.6571927577594506 0.6611978966668938 -1.019097485356246 
repo_new3/DataCodes3/362/b_362_7394_1.py,-0.8714081389367695 0.152701648734133 -0.7904137995172913 -0.040040763979297365 -0.6578150274890119 0.6500144316043232 -1.0613798480183432 0.7319566756350375 0.7426895089394434 -1.082685598641633 
repo_new3/DataCodes3/362/c_362_7394_2.py,-0.8565578834702636 0.1307255012659841 -0.7828176521888474 -0.07598750346296683 -0.6266896653092711 0.6378054025691365 -1.0799829947613862 0.6636722542240892 0.6863897614731068 -1.0706342173718633 
repo_new3/DataCodes3/371/b_371_7394_1.py,-0.7455001085048335 0.10321184481974476 -0.6320297464343093 -0.019427550079241875 -0.5728425782099569 0.5455545981336765 -0.925354956155964 0.6271993905735163 0.6218830324412921 -0.9545325824705376 
repo_new3/DataCodes3/371/b_371_7394_2.py,-0.7455001085048335 0.10321184481974476 -0.6320297464343093 -0.019427550079241875 -0.5728425782099569 0.5455545981336765 -0.925354956155964 0.6271993905735163 0.6218830324412921 -0.9545325824705376 
repo_new3/DataCodes3/371/b_371_7394_3.py,-0.7702745065537661 0.1076192626319488 -0.6558814177190773 -0.031110801170857832 -0.594600155588006 0.564938933499183 -0.9640865063395767 0.6386588765257828 0.6383238343506219 -0.9969205127571646 
repo_new3/DataCodes3/371/b_371_7394_4.py,-0.7792053128685945 0.11427628909941108 -0.6544815156312048 -0.0263286938766911 -0.6080067115493624 0.571743972513472 -0.9665262672202775 0.651747929305068 0.65095849193362 -1.010582955871719 
repo_new3/DataCodes3/371/c_371_7394_5.py,-0.764448987962597 0.118198875354158 -0.6248731972155862 -0.01188820102465401 -0.6011496591177465 0.5670476549501291 -0.956090226166882 0.6472353752792435 0.6461943079621285 -1.0008496571032184 
repo_new3/DataCodes3/362/c_362_1167_1.py,-0.8565578834702636 0.1307255012659841 -0.7828176521888474 -0.07598750346296683 -0.6266896653092711 0.6378054025691365 -1.0799829947613862 0.6636722542240892 0.6863897614731068 -1.0706342173718633 
repo_new3/DataCodes3/371/c_371_1167_1.py,-0.7298298924788416 0.10699974551448646 -0.6014397324938114 -0.004584689152211304 -0.5651930952161388 0.5402758120596005 -0.9139456614371959 0.6221387597495516 0.616480657262699 -0.9435587248409768 
repo_new3/DataCodes3/362/b_362_24551_1.py,-0.7944767071373809 0.22082915691664706 -0.6784282526084915 -0.06697893345619305 -0.7249444155928519 0.6391672035740249 -0.9353280549668169 0.7609891394902614 0.7524402877882598 -1.1383193552986977 
repo_new3/DataCodes3/362/c_362_24551_2.py,-0.8565578834702636 0.1307255012659841 -0.7828176521888474 -0.07598750346296683 -0.6266896653092711 0.6378054025691365 -1.0799829947613862 0.6636722542240892 0.6863897614731068 -1.0706342173718633 
repo_new3/DataCodes3/371/b_371_24551_1.py,-0.748639594332297 0.10554531368401425 -0.6321336185592411 -0.005275465923634682 -0.5728835823554996 0.5488299157184436 -0.9583618347584597 0.6235563326916791 0.6324516068722271 -0.9421716900921786 
repo_new3/DataCodes3/371/b_371_24551_2.py,-0.7362243373648278 0.10952549637319867 -0.5955519957756377 -0.004587141725488373 -0.576759983804513 0.5439821035970737 -0.9320569234575181 0.6209791169629083 0.623193400748661 -0.9564017277487277 
repo_new3/DataCodes3/371/b_371_24551_3.py,-0.7508578474349178 0.11025273113644596 -0.5957578389679289 0.010855362725558136 -0.5760364547452649 0.5546798596948762 -0.961297841631934 0.6275533999335557 0.6333751022215167 -0.9649494355548577 
repo_new3/DataCodes3/371/b_371_24551_4.py,-0.7499698882707699 0.12021606991366716 -0.601482269767221 -0.001153779211166248 -0.5910733226388531 0.5607553610641154 -0.9519847720304867 0.6375697352401454 0.6407379018084527 -0.9824658464658451 
repo_new3/DataCodes3/371/b_371_24551_5.py,-0.6316124521677754 0.036677360560319276 -0.5443097358630732 -0.03576417025712905 -0.4513389937056993 0.4585242978664931 -0.8675992240539443 0.47395133097685016 0.4773519642161431 -0.8161080457810146 
repo_new3/DataCodes3/371/b_371_24551_6.py,-0.7591539592097397 0.11306759122266219 -0.6094857844506483 0.003262839360875222 -0.5805995582342912 0.5624610458461654 -0.957997047624201 0.6386184286947982 0.6375277998224631 -0.9815856807030818 
repo_new3/DataCodes3/371/c_371_24551_7.py,-0.7591539592097397 0.11306759122266219 -0.6094857844506483 0.003262839360875222 -0.5805995582342912 0.5624610458461654 -0.957997047624201 0.6386184286947982 0.6375277998224631 -0.9815856807030818 
repo_new3/DataCodes3/362/b_362_3150_1.py,-0.8435851610949983 0.16691863194089643 -0.7346750596515419 -0.06443069253058586 -0.6762338453189992 0.6422769763128928 -1.023228056436881 0.7156056295735165 0.7241206796674884 -1.1098463629507183 
repo_new3/DataCodes3/362/c_362_3150_2.py,-0.8565578834702636 0.1307255012659841 -0.7828176521888474 -0.07598750346296683 -0.6266896653092711 0.6378054025691365 -1.0799829947613862 0.6636722542240892 0.6863897614731068 -1.0706342173718633 
repo_new3/DataCodes3/371/b_371_3150_1.py,-0.6832876244831739 0.0577388579480199 -0.598050912534493 -0.04884213431406738 -0.503478735141701 0.4878336206918151 -0.8864571126770757 0.5288591771808404 0.5291907672206666 -0.8736953058183858 
repo_new3/DataCodes3/371/b_371_3150_2.py,-0.7390189768902217 0.09967450191096928 -0.631480303646746 -0.025150238297304645 -0.5660322826404105 0.5416229941924465 -0.926722442420122 0.6141412923064808 0.6118745169106679 -0.9460822760587095 
repo_new3/DataCodes3/371/b_371_3150_3.py,-0.7390189768902217 0.09967450191096928 -0.631480303646746 -0.025150238297304645 -0.5660322826404105 0.5416229941924465 -0.926722442420122 0.6141412923064808 0.6118745169106679 -0.9460822760587095 
repo_new3/DataCodes3/371/b_371_3150_4.py,-0.7548833986293951 0.10414675556224844 -0.6376242962289824 -0.021585525875040246 -0.5764217726228313 0.5541333579445449 -0.9417786692211602 0.6303529449890594 0.626649133902188 -0.9684450823062132 
repo_new3/DataCodes3/371/b_371_3150_5.py,-0.7548833986293951 0.10414675556224844 -0.6376242962289824 -0.021585525875040246 -0.5764217726228313 0.5541333579445449 -0.9417786692211602 0.6303529449890594 0.626649133902188 -0.9684450823062132 
repo_new3/DataCodes3/371/b_371_3150_6.py,-0.7548833986293951 0.10414675556224844 -0.6376242962289824 -0.021585525875040246 -0.5764217726228313 0.5541333579445449 -0.9417786692211602 0.6303529449890594 0.626649133902188 -0.9684450823062132 
repo_new3/DataCodes3/371/c_371_3150_7.py,-0.7387825474147364 0.10810132852428339 -0.6059448850597264 -0.006203349106538221 -0.5685423087489667 0.5488154658564899 -0.9302435236731975 0.6251554444040345 0.6211280473983878 -0.9573131837706836 
repo_new3/DataCodes3/362/b_362_5539_1.py,-0.81997734031304 0.20885835724265528 -0.7162235380509251 -0.06498120208965323 -0.7245883200256522 0.6424131507303578 -0.9634311372330046 0.7691478124739075 0.7642538036442794 -1.1331429537625737 
repo_new3/DataCodes3/362/c_362_5539_2.py,-0.8565578834702636 0.1307255012659841 -0.7828176521888474 -0.07598750346296683 -0.6266896653092711 0.6378054025691365 -1.0799829947613862 0.6636722542240892 0.6863897614731068 -1.0706342173718633 
repo_new3/DataCodes3/371/b_371_5539_1.py,-0.685979578711075 0.07105750017108607 -0.6008146278239291 0.010735883805655148 -0.4848769549668186 0.4955059029508787 -0.9083879584383916 0.5575122001047347 0.563809319060665 -0.8239611523824736 
repo_new3/DataCodes3/371/b_371_5539_2.py,-0.6316124521677754 0.036677360560319276 -0.5443097358630732 -0.03576417025712905 -0.4513389937056993 0.4585242978664931 -0.8675992240539443 0.47395133097685016 0.4773519642161431 -0.8161080457810146 
repo_new3/DataCodes3/371/b_371_5539_3.py,-0.7175014960287341 0.09372762988651365 -0.5840259114820753 0.014891270628324307 -0.5349343422119439 0.5217998456516348 -0.8956775060442241 0.6106536975819745 0.6014553093296914 -0.9006686086372896 
repo_new3/DataCodes3/371/b_371_5539_4.py,-0.7298298924788416 0.10699974551448646 -0.6014397324938114 -0.004584689152211304 -0.5651930952161388 0.5402758120596005 -0.9139456614371959 0.6221387597495516 0.616480657262699 -0.9435587248409768 
repo_new3/DataCodes3/371/c_371_5539_5.py,-0.7298298924788416 0.10699974551448646 -0.6014397324938114 -0.004584689152211304 -0.5651930952161388 0.5402758120596005 -0.9139456614371959 0.6221387597495516 0.616480657262699 -0.9435587248409768 
repo_new3/DataCodes3/362/b_362_26953_1.py,-0.8660300767212679 0.18690434568297834 -0.7448500238179087 -0.06455325967447659 -0.710240857898044 0.6618082894245908 -1.044844701797215 0.7528242552481664 0.7577270896701674 -1.1591174898548038 
repo_new3/DataCodes3/362/c_362_26953_2.py,-0.8565578834702636 0.1307255012659841 -0.7828176521888474 -0.07598750346296683 -0.6266896653092711 0.6378054025691365 -1.0799829947613862 0.6636722542240892 0.6863897614731068 -1.0706342173718633 
repo_new3/DataCodes3/371/b_371_26953_1.py,-0.7745605207410302 0.11970976711518917 -0.630192706768053 -0.013756424828720299 -0.6058167502460758 0.5764524351476235 -0.9736951560238207 0.6511589519384529 0.6518947394895469 -1.0165422130854995 
repo_new3/DataCodes3/371/b_371_26953_2.py,-0.6675594280326095 0.0434672133863052 -0.5485429869920406 -0.0037501968661321473 -0.4592665522521307 0.48546836566957824 -0.9287030381160872 0.49751164394995867 0.507772423822897 -0.8430093195021839 
repo_new3/DataCodes3/371/c_371_26953_3.py,-0.7298298924788416 0.10699974551448646 -0.6014397324938114 -0.004584689152211304 -0.5651930952161388 0.5402758120596005 -0.9139456614371959 0.6221387597495516 0.616480657262699 -0.9435587248409768 
repo_new3/DataCodes3/362/b_362_23485_1.py,-0.9093640055895174 0.16894838675114557 -0.790828668436618 -0.09029899262938498 -0.708449163126176 0.6812389821804481 -1.108398933848001 0.738562811741201 0.749299999323282 -1.1986908463391497 
repo_new3/DataCodes3/362/c_362_23485_2.py,-0.8565578834702636 0.1307255012659841 -0.7828176521888474 -0.07598750346296683 -0.6266896653092711 0.6378054025691365 -1.0799829947613862 0.6636722542240892 0.6863897614731068 -1.0706342173718633 
repo_new3/DataCodes3/371/b_371_23485_1.py,-0.7529953602734348 0.10759268958745051 -0.596933586713769 0.009137177345451023 -0.5797317130108175 0.5541504068312972 -0.9590845675653478 0.6270994187905868 0.6319063086771504 -0.9683515313815679 
repo_new3/DataCodes3/371/b_371_23485_2.py,-0.7618130570500923 0.1130021223113151 -0.6359854442633432 -0.003655800865714223 -0.5889561799704299 0.5629071189928855 -0.9723878327043656 0.637684805880007 0.6461210684851265 -0.9690735819990223 
repo_new3/DataCodes3/371/b_371_23485_3.py,-0.7270498972325273 0.08103617257199318 -0.6234733887677903 0.009571896268076077 -0.5262132959973126 0.518837665518389 -0.9170186261014596 0.6041006074948448 0.6021858807866324 -0.8755998024306476 
repo_new3/DataCodes3/371/b_371_23485_4.py,-0.7380012049827582 0.09328895952036909 -0.6380514678018692 -0.010273443231320154 -0.5505949930906088 0.5368921394793723 -0.9381838048954739 0.611054652598253 0.6134719559366482 -0.9161808195973987 
repo_new3/DataCodes3/371/b_371_23485_5.py,-0.7411409370615721 0.09316634702545658 -0.643236477778643 -0.008884007018318665 -0.5569843172381796 0.5378181281538194 -0.9368586222817873 0.6165882907258387 0.618358033345425 -0.9179899639788769 
repo_new3/DataCodes3/371/b_371_23485_6.py,-0.7533858208139834 0.10405933477307058 -0.6454310975508776 -0.0054504590774493555 -0.571422468989763 0.5535858687421993 -0.9547690480290797 0.6320685785209078 0.6347411642125276 -0.9444444675888841 
repo_new3/DataCodes3/371/c_371_23485_7.py,-0.7745605207410302 0.11970976711518917 -0.630192706768053 -0.013756424828720299 -0.6058167502460758 0.5764524351476235 -0.9736951560238207 0.6511589519384529 0.6518947394895469 -1.0165422130854995 
repo_new3/DataCodes3/362/b_362_23394_1.py,-0.7944767071373809 0.22082915691664706 -0.6784282526084915 -0.06697893345619305 -0.7249444155928519 0.6391672035740249 -0.9353280549668169 0.7609891394902614 0.7524402877882598 -1.1383193552986977 
repo_new3/DataCodes3/362/c_362_23394_2.py,-0.8565578834702636 0.1307255012659841 -0.7828176521888474 -0.07598750346296683 -0.6266896653092711 0.6378054025691365 -1.0799829947613862 0.6636722542240892 0.6863897614731068 -1.0706342173718633 
repo_new3/DataCodes3/371/b_371_23394_1.py,-0.7188640520750664 0.09833000381529985 -0.5828925987976286 -0.011316332224332055 -0.5538787415990616 0.5305414354911302 -0.9228989038261649 0.5942631192757555 0.5968343743486889 -0.9361493179382062 
repo_new3/DataCodes3/371/b_371_23394_2.py,-0.7242103064515938 0.09934093105255948 -0.5905353261439258 0.00777577009920211 -0.5431719502326914 0.5375093976174474 -0.9464034508976006 0.5996006176635451 0.6042021454423122 -0.9310653482931136 
repo_new3/DataCodes3/371/b_371_23394_3.py,-0.5722211314953334 0.04720176555521835 -0.48110232504130984 -0.02128638849656169 -0.4421328469188199 0.43071408172831815 -0.7840033712615052 0.4689795775306319 0.46201169843376433 -0.7795853173161278 
repo_new3/DataCodes3/371/b_371_23394_4.py,-0.6531454537795046 0.06991840275601793 -0.5465761457435375 -0.005554421405236269 -0.4829904276744068 0.4851054446851744 -0.8626540382445874 0.5377948529573836 0.5322710489178167 -0.8477039373272945 
repo_new3/DataCodes3/371/c_371_23394_5.py,-0.7591539592097397 0.11306759122266219 -0.6094857844506483 0.003262839360875222 -0.5805995582342912 0.5624610458461654 -0.957997047624201 0.6386184286947982 0.6375277998224631 -0.9815856807030818 
repo_new3/DataCodes3/362/b_362_41254_1.py,-0.7952996838272337 0.216205157543723 -0.67205431795213 -0.056476004237917016 -0.7210664847668612 0.6267638866341794 -0.9147730074321287 0.7685205793064138 0.7564700398112103 -1.1196974702400582 
repo_new3/DataCodes3/362/c_362_41254_2.py,-0.8565578834702636 0.1307255012659841 -0.7828176521888474 -0.07598750346296683 -0.6266896653092711 0.6378054025691365 -1.0799829947613862 0.6636722542240892 0.6863897614731068 -1.0706342173718633 
repo_new3/DataCodes3/371/b_371_41254_1.py,-0.764448987962597 0.118198875354158 -0.6248731972155862 -0.01188820102465401 -0.6011496591177465 0.5670476549501291 -0.956090226166882 0.6472353752792435 0.6461943079621285 -1.0008496571032184 
repo_new3/DataCodes3/371/c_371_41254_2.py,-0.764448987962597 0.118198875354158 -0.6248731972155862 -0.01188820102465401 -0.6011496591177465 0.5670476549501291 -0.956090226166882 0.6472353752792435 0.6461943079621285 -1.0008496571032184 
repo_new3/DataCodes3/362/c_362_29342_1.py,-0.8565578834702636 0.1307255012659841 -0.7828176521888474 -0.07598750346296683 -0.6266896653092711 0.6378054025691365 -1.0799829947613862 0.6636722542240892 0.6863897614731068 -1.0706342173718633 
repo_new3/DataCodes3/371/b_371_29342_1.py,-0.7420888970332066 0.10768711267501685 -0.6120462629272484 -0.004811997455758597 -0.574955601857379 0.5495661952980261 -0.928995333281304 0.6307376296610547 0.6261492484741503 -0.9584370830847636 
repo_new3/DataCodes3/371/b_371_29342_2.py,-0.7420888970332066 0.10768711267501685 -0.6120462629272484 -0.004811997455758597 -0.574955601857379 0.5495661952980261 -0.928995333281304 0.6307376296610547 0.6261492484741503 -0.9584370830847636 
repo_new3/DataCodes3/371/b_371_29342_3.py,-0.7298298924788416 0.10699974551448646 -0.6014397324938114 -0.0045846891522113055 -0.5651930952161388 0.5402758120596005 -0.9139456614371959 0.6221387597495516 0.616480657262699 -0.9435587248409768 
repo_new3/DataCodes3/371/b_371_29342_4.py,-0.7562319261450035 0.11456750601352104 -0.6328508510186706 -0.014305268186843176 -0.5863161314543716 0.5608503056021708 -0.9431896691635399 0.6422014300092062 0.6382183208215015 -0.9787934618526337 
repo_new3/DataCodes3/371/b_371_29342_5.py,-0.7562319261450035 0.11456750601352104 -0.6328508510186706 -0.014305268186843176 -0.5863161314543716 0.5608503056021708 -0.9431896691635399 0.6422014300092062 0.6382183208215015 -0.9787934618526337 
repo_new3/DataCodes3/371/c_371_29342_6.py,-0.7562319261450035 0.11456750601352104 -0.6328508510186706 -0.014305268186843176 -0.5863161314543716 0.5608503056021708 -0.9431896691635399 0.6422014300092062 0.6382183208215015 -0.9787934618526337 
repo_new3/DataCodes3/362/c_362_3363_1.py,-0.8565578834702636 0.1307255012659841 -0.7828176521888474 -0.07598750346296683 -0.6266896653092711 0.6378054025691365 -1.0799829947613862 0.6636722542240892 0.6863897614731068 -1.0706342173718633 
repo_new3/DataCodes3/371/b_371_3363_1.py,-0.7929677758602759 0.11055351690780695 -0.6823927073771694 -0.04017173088454485 -0.6144158695372947 0.576031158603287 -0.9761788403159258 0.6557411956302768 0.6552065184916122 -1.0197100929947565 
repo_new3/DataCodes3/371/b_371_3363_2.py,-0.7792053128685945 0.11427628909941108 -0.6544815156312048 -0.0263286938766911 -0.6080067115493624 0.5717439725134719 -0.9665262672202775 0.651747929305068 0.65095849193362 -1.010582955871719 
repo_new3/DataCodes3/371/b_371_3363_3.py,-0.7792053128685945 0.11427628909941108 -0.6544815156312048 -0.0263286938766911 -0.6080067115493624 0.5717439725134719 -0.9665262672202775 0.651747929305068 0.65095849193362 -1.010582955871719 
repo_new3/DataCodes3/371/c_371_3363_4.py,-0.7298298924788416 0.10699974551448646 -0.6014397324938114 -0.0045846891522113055 -0.5651930952161388 0.5402758120596005 -0.9139456614371959 0.6221387597495516 0.616480657262699 -0.9435587248409768 
repo_new3/DataCodes3/362/c_362_40951_1.py,-0.8565578834702636 0.1307255012659841 -0.7828176521888474 -0.07598750346296683 -0.6266896653092711 0.6378054025691365 -1.0799829947613862 0.6636722542240892 0.6863897614731068 -1.0706342173718633 
repo_new3/DataCodes3/371/b_371_40951_1.py,-0.7664358657453216 0.10784065923260269 -0.6444874545416416 -0.033688359417337804 -0.5973085327181803 0.5566634748493641 -0.9474435759026136 0.6345890448444292 0.6337219544043038 -0.9899840369053965 
repo_new3/DataCodes3/371/b_371_40951_2.py,-0.7896030868795864 0.08995968980201445 -0.6772681410706989 -0.02672059443363766 -0.5789366525674823 0.5560936834945412 -0.9720937340599519 0.6352865472336983 0.6351418108855564 -0.9719915146887 
repo_new3/DataCodes3/371/b_371_40951_3.py,-0.6917460192768291 0.04227336846116128 -0.5948636258468742 -0.021197343099392068 -0.4737885397942462 0.49398940690091286 -0.9420929396859395 0.512296815149207 0.5220991253790046 -0.8602023911048267 
repo_new3/DataCodes3/371/b_371_40951_4.py,-0.7198469178051372 0.06959118067121872 -0.5767767040114361 0.02753043161150891 -0.49394864449807624 0.5036402089884157 -0.9089478104964928 0.5812038462805763 0.5755202513826466 -0.8596435611242278 
repo_new3/DataCodes3/371/b_371_40951_5.py,-0.7902479895293717 0.12047851015988041 -0.662186820129951 -0.03221331594254589 -0.6207133039328617 0.5749881375976166 -0.961517827277999 0.6645187789042211 0.6612837546804098 -1.022633844566137 
repo_new3/DataCodes3/371/b_371_40951_6.py,-0.7782528489994888 0.12400748314089953 -0.637863511345069 -0.02010130037808565 -0.6154218385965242 0.5711752619969378 -0.9527217262400138 0.6613002762296752 0.6577885515431868 -1.0148658416137977 
repo_new3/DataCodes3/371/c_371_40951_7.py,-0.764448987962597 0.118198875354158 -0.6248731972155862 -0.01188820102465401 -0.6011496591177465 0.5670476549501291 -0.956090226166882 0.6472353752792435 0.6461943079621285 -1.0008496571032184 
repo_new3/DataCodes3/362/b_362_13576_1.py,-0.784806060338484 0.2102689647638343 -0.6791704309084562 -0.07169514252463642 -0.7051841626867503 0.6278891463950074 -0.9321066978081244 0.7384648083633517 0.7325640833792818 -1.1138484401908748 
repo_new3/DataCodes3/362/c_362_13576_2.py,-0.8565578834702636 0.1307255012659841 -0.7828176521888474 -0.07598750346296683 -0.6266896653092711 0.6378054025691365 -1.0799829947613862 0.6636722542240892 0.6863897614731068 -1.0706342173718633 
repo_new3/DataCodes3/371/b_371_13576_1.py,-0.7309211432956211 0.11572484344437929 -0.6086506012044614 0.0008952311015270682 -0.572094336635229 0.5492417637041059 -0.9435733363181834 0.6256964900864344 0.6323370001585048 -0.9436841531852426 
repo_new3/DataCodes3/371/b_371_13576_2.py,-0.764448987962597 0.118198875354158 -0.6248731972155862 -0.01188820102465401 -0.6011496591177465 0.5670476549501291 -0.956090226166882 0.6472353752792435 0.6461943079621285 -1.0008496571032184 
repo_new3/DataCodes3/371/c_371_13576_3.py,-0.764448987962597 0.118198875354158 -0.6248731972155862 -0.01188820102465401 -0.6011496591177465 0.5670476549501291 -0.956090226166882 0.6472353752792435 0.6461943079621285 -1.0008496571032184 
repo_new3/DataCodes3/362/b_362_42500_1.py,-0.8326625812931489 0.20286867982185758 -0.7173195087042112 -0.06201655002327429 -0.7166880661723659 0.651108927399029 -0.9954241446430289 0.7593867194695808 0.7587562723519821 -1.1442594925388352 
repo_new3/DataCodes3/362/c_362_42500_2.py,-0.8565578834702636 0.1307255012659841 -0.7828176521888474 -0.07598750346296683 -0.6266896653092711 0.6378054025691365 -1.0799829947613862 0.6636722542240892 0.6863897614731068 -1.0706342173718633 
repo_new3/DataCodes3/371/c_371_42500_1.py,-0.7298298924788416 0.10699974551448646 -0.6014397324938114 -0.004584689152211304 -0.5651930952161388 0.5402758120596005 -0.9139456614371959 0.6221387597495516 0.616480657262699 -0.9435587248409768 
repo_new3/DataCodes3/362/b_362_6508_1.py,-0.8533364861048688 0.19165734326779088 -0.7310127927672702 -0.09139669287585782 -0.7074112530462743 0.6690119021965839 -1.0454702664342326 0.7274969360281813 0.7321697176114669 -1.1862780223792055 
repo_new3/DataCodes3/362/c_362_6508_2.py,-0.8565578834702636 0.1307255012659841 -0.7828176521888474 -0.07598750346296683 -0.6266896653092711 0.6378054025691365 -1.0799829947613862 0.6636722542240892 0.6863897614731068 -1.0706342173718633 
repo_new3/DataCodes3/371/c_371_6508_1.py,-0.7298298924788416 0.10699974551448646 -0.6014397324938114 -0.004584689152211304 -0.5651930952161388 0.5402758120596005 -0.9139456614371959 0.6221387597495516 0.616480657262699 -0.9435587248409768 
repo_new3/DataCodes3/362/b_362_28067_1.py,-0.7944767071373809 0.22082915691664706 -0.6784282526084915 -0.06697893345619305 -0.7249444155928519 0.6391672035740249 -0.9353280549668169 0.7609891394902614 0.7524402877882598 -1.1383193552986977 
repo_new3/DataCodes3/362/c_362_28067_2.py,-0.838441993679641 0.16641225843356347 -0.7857947847289795 -0.11907726098587826 -0.6821942772935989 0.6514258527249707 -1.027401234212311 0.6966657663842722 0.7071239695013066 -1.1276361271735345 
repo_new3/DataCodes3/371/b_371_28067_1.py,-0.7387825474147364 0.10810132852428339 -0.6059448850597264 -0.006203349106538221 -0.5685423087489667 0.5488154658564899 -0.9302435236731975 0.6251554444040345 0.6211280473983878 -0.9573131837706836 
repo_new3/DataCodes3/371/c_371_28067_2.py,-0.7387825474147364 0.10810132852428339 -0.6059448850597264 -0.006203349106538221 -0.5685423087489667 0.5488154658564899 -0.9302435236731975 0.6251554444040345 0.6211280473983878 -0.9573131837706836 
repo_new3/DataCodes3/362/b_362_30061_1.py,-0.9073762366007071 0.15635177569820935 -0.8077491612630212 -0.10982487916158412 -0.6992212124223247 0.6679269546481663 -1.094504396504794 0.7227050236332294 0.732784193597783 -1.1822677738637777 
repo_new3/DataCodes3/362/c_362_30061_2.py,-0.8565578834702636 0.1307255012659841 -0.7828176521888474 -0.07598750346296683 -0.6266896653092711 0.6378054025691365 -1.0799829947613862 0.6636722542240892 0.6863897614731068 -1.0706342173718633 
repo_new3/DataCodes3/371/b_371_30061_1.py,-0.7242431392958685 0.08387021420177035 -0.626134464156848 0.0025424668467593625 -0.5253134178752992 0.5253130935463448 -0.9540135908208055 0.5859070930160988 0.5969515034526267 -0.8882228236502422 
repo_new3/DataCodes3/371/b_371_30061_2.py,-0.7242431392958685 0.08387021420177035 -0.626134464156848 0.0025424668467593625 -0.5253134178752992 0.5253130935463448 -0.9540135908208055 0.5859070930160988 0.5969515034526267 -0.8882228236502422 
repo_new3/DataCodes3/371/b_371_30061_3.py,-0.7388755149669127 0.09645974137394982 -0.6298010838642518 0.005448109728123196 -0.5434347305435479 0.5434681944949509 -0.972316249970747 0.6050936736686559 0.6164383782442805 -0.9193334110313478 
repo_new3/DataCodes3/371/b_371_30061_4.py,-0.7242103064515938 0.09934093105255948 -0.5905353261439258 0.00777577009920211 -0.5431719502326914 0.5375093976174474 -0.9464034508976006 0.5996006176635451 0.6042021454423122 -0.9310653482931136 
repo_new3/DataCodes3/371/c_371_30061_5.py,-0.764448987962597 0.118198875354158 -0.6248731972155862 -0.01188820102465401 -0.6011496591177465 0.5670476549501291 -0.956090226166882 0.6472353752792435 0.6461943079621285 -1.0008496571032184 
repo_new3/DataCodes3/362/b_362_46175_1.py,-0.7865736892882772 0.22221953113253515 -0.6811122571811044 -0.06862399639158236 -0.728396740601495 0.6273878089594721 -0.9074102297696993 0.7696051963502489 0.7589839988498149 -1.1199324709402134 
repo_new3/DataCodes3/362/c_362_46175_2.py,-0.8565578834702636 0.1307255012659841 -0.7828176521888474 -0.07598750346296683 -0.6266896653092711 0.6378054025691365 -1.0799829947613862 0.6636722542240892 0.6863897614731068 -1.0706342173718633 
repo_new3/DataCodes3/371/b_371_46175_1.py,-0.7664358657453216 0.10784065923260269 -0.6444874545416416 -0.033688359417337804 -0.5973085327181803 0.5566634748493641 -0.9474435759026136 0.6345890448444292 0.6337219544043038 -0.9899840369053965 
repo_new3/DataCodes3/371/b_371_46175_2.py,-0.7896030868795864 0.08995968980201445 -0.6772681410706989 -0.02672059443363766 -0.5789366525674823 0.5560936834945412 -0.9720937340599519 0.6352865472336983 0.6351418108855564 -0.9719915146887 
repo_new3/DataCodes3/371/b_371_46175_3.py,-0.6917460192768291 0.04227336846116128 -0.5948636258468742 -0.021197343099392068 -0.4737885397942462 0.49398940690091286 -0.9420929396859395 0.512296815149207 0.5220991253790046 -0.8602023911048267 
repo_new3/DataCodes3/371/b_371_46175_4.py,-0.7198469178051372 0.06959118067121872 -0.5767767040114361 0.02753043161150891 -0.49394864449807624 0.5036402089884157 -0.9089478104964928 0.5812038462805763 0.5755202513826466 -0.8596435611242278 
repo_new3/DataCodes3/371/b_371_46175_5.py,-0.7902479895293717 0.12047851015988041 -0.662186820129951 -0.03221331594254589 -0.6207133039328617 0.5749881375976166 -0.961517827277999 0.6645187789042211 0.6612837546804098 -1.022633844566137 
repo_new3/DataCodes3/371/b_371_46175_6.py,-0.7782528489994888 0.12400748314089953 -0.637863511345069 -0.02010130037808565 -0.6154218385965242 0.5711752619969378 -0.9527217262400138 0.6613002762296752 0.6577885515431868 -1.0148658416137977 
repo_new3/DataCodes3/371/c_371_46175_7.py,-0.764448987962597 0.118198875354158 -0.6248731972155862 -0.01188820102465401 -0.6011496591177465 0.5670476549501291 -0.956090226166882 0.6472353752792435 0.6461943079621285 -1.0008496571032184 
repo_new3/DataCodes3/362/b_362_32710_1.py,-0.8330977547777686 0.24190817476782003 -0.6817023808527479 -0.032877448184299884 -0.7655269504458068 0.6625956219655053 -0.9271792076209987 0.8388023155299272 0.8120810076659946 -1.1886747108003988 
repo_new3/DataCodes3/362/c_362_32710_2.py,-0.8200432589207035 0.2143595735216863 -0.7225420561023963 -0.07408091278003608 -0.7290790365732581 0.6540694424501166 -0.9819153448979044 0.764918117680116 0.7636531332645963 -1.1505940578357456 
repo_new3/DataCodes3/371/c_371_32710_1.py,-0.7298298924788416 0.10699974551448646 -0.6014397324938114 -0.004584689152211299 -0.5651930952161388 0.5402758120596005 -0.9139456614371959 0.6221387597495515 0.616480657262699 -0.9435587248409768 
repo_new3/DataCodes3/362/c_362_33845_1.py,-0.8565578834702636 0.1307255012659841 -0.7828176521888474 -0.07598750346296683 -0.6266896653092711 0.6378054025691365 -1.0799829947613862 0.6636722542240892 0.6863897614731068 -1.0706342173718633 
repo_new3/DataCodes3/371/b_371_33845_1.py,-0.7282311120924643 0.08154242520034706 -0.6232144613339853 -0.014326633925044671 -0.532930507156679 0.5305501071161962 -0.9512753467920655 0.5828822015712254 0.5877369359593916 -0.9220323160672816 
repo_new3/DataCodes3/371/b_371_33845_2.py,-0.7282311120924643 0.08154242520034706 -0.6232144613339853 -0.014326633925044671 -0.532930507156679 0.5305501071161962 -0.9512753467920655 0.5828822015712254 0.5877369359593916 -0.9220323160672816 
repo_new3/DataCodes3/371/b_371_33845_3.py,-0.6316124521677754 0.036677360560319276 -0.5443097358630732 -0.03576417025712905 -0.4513389937056993 0.4585242978664931 -0.8675992240539443 0.47395133097685016 0.4773519642161431 -0.8161080457810146 
repo_new3/DataCodes3/371/b_371_33845_4.py,-0.7298298924788416 0.10699974551448646 -0.6014397324938114 -0.004584689152211304 -0.5651930952161388 0.5402758120596005 -0.9139456614371959 0.6221387597495516 0.616480657262699 -0.9435587248409768 
repo_new3/DataCodes3/371/b_371_33845_5.py,-0.7298298924788416 0.10699974551448646 -0.6014397324938114 -0.004584689152211304 -0.5651930952161388 0.5402758120596005 -0.9139456614371959 0.6221387597495516 0.616480657262699 -0.9435587248409768 
repo_new3/DataCodes3/371/c_371_33845_6.py,-0.7298298924788416 0.10699974551448646 -0.6014397324938114 -0.004584689152211304 -0.5651930952161388 0.5402758120596005 -0.9139456614371959 0.6221387597495516 0.616480657262699 -0.9435587248409768 
repo_new3/DataCodes3/362/b_362_6582_1.py,-0.7948398281025557 0.21966045123654004 -0.6730013174926374 -0.07480610384920752 -0.7249857939216313 0.639455241680468 -0.9337060821930878 0.7544518854558685 0.7449260662081963 -1.1475563204152714 
repo_new3/DataCodes3/362/c_362_6582_2.py,-0.8565578834702636 0.1307255012659841 -0.7828176521888474 -0.07598750346296683 -0.6266896653092711 0.6378054025691365 -1.0799829947613862 0.6636722542240892 0.6863897614731068 -1.0706342173718633 
repo_new3/DataCodes3/371/b_371_6582_1.py,-0.7664358657453216 0.10784065923260269 -0.6444874545416416 -0.033688359417337804 -0.5973085327181803 0.5566634748493641 -0.9474435759026136 0.6345890448444292 0.6337219544043038 -0.9899840369053965 
repo_new3/DataCodes3/371/b_371_6582_2.py,-0.7896030868795864 0.08995968980201445 -0.6772681410706989 -0.02672059443363766 -0.5789366525674823 0.5560936834945412 -0.9720937340599519 0.6352865472336983 0.6351418108855564 -0.9719915146887 
repo_new3/DataCodes3/371/b_371_6582_3.py,-0.6917460192768291 0.04227336846116128 -0.5948636258468742 -0.021197343099392068 -0.4737885397942462 0.49398940690091286 -0.9420929396859395 0.512296815149207 0.5220991253790046 -0.8602023911048267 
repo_new3/DataCodes3/371/b_371_6582_4.py,-0.7198469178051372 0.06959118067121872 -0.5767767040114361 0.02753043161150891 -0.49394864449807624 0.5036402089884157 -0.9089478104964928 0.5812038462805763 0.5755202513826466 -0.8596435611242278 
repo_new3/DataCodes3/371/b_371_6582_5.py,-0.7902479895293717 0.12047851015988041 -0.662186820129951 -0.03221331594254589 -0.6207133039328617 0.5749881375976166 -0.961517827277999 0.6645187789042211 0.6612837546804098 -1.022633844566137 
repo_new3/DataCodes3/371/b_371_6582_6.py,-0.7782528489994888 0.12400748314089953 -0.637863511345069 -0.02010130037808565 -0.6154218385965242 0.5711752619969378 -0.9527217262400138 0.6613002762296752 0.6577885515431868 -1.0148658416137977 
repo_new3/DataCodes3/371/c_371_6582_7.py,-0.764448987962597 0.118198875354158 -0.6248731972155862 -0.01188820102465401 -0.6011496591177465 0.5670476549501291 -0.956090226166882 0.6472353752792435 0.6461943079621285 -1.0008496571032184 
repo_new3/DataCodes3/362/b_362_42615_1.py,-0.8480214860292229 0.19923502523441405 -0.7096189066914272 -0.03674623685549288 -0.7083310565948477 0.6605512045866685 -1.0328275354255776 0.7613765997350185 0.7657685506153741 -1.14715133114239 
repo_new3/DataCodes3/362/c_362_42615_2.py,-0.8565578834702636 0.1307255012659841 -0.7828176521888474 -0.07598750346296683 -0.6266896653092711 0.6378054025691365 -1.0799829947613862 0.6636722542240892 0.6863897614731068 -1.0706342173718633 
repo_new3/DataCodes3/371/b_371_42615_1.py,-0.7664358657453216 0.10784065923260269 -0.6444874545416416 -0.033688359417337804 -0.5973085327181803 0.5566634748493641 -0.9474435759026136 0.6345890448444292 0.6337219544043038 -0.9899840369053965 
repo_new3/DataCodes3/371/b_371_42615_2.py,-0.7896030868795864 0.08995968980201445 -0.6772681410706989 -0.02672059443363766 -0.5789366525674823 0.5560936834945412 -0.9720937340599519 0.6352865472336983 0.6351418108855564 -0.9719915146887 
repo_new3/DataCodes3/371/b_371_42615_3.py,-0.6917460192768291 0.04227336846116128 -0.5948636258468742 -0.021197343099392068 -0.4737885397942462 0.49398940690091286 -0.9420929396859395 0.512296815149207 0.5220991253790046 -0.8602023911048267 
repo_new3/DataCodes3/371/b_371_42615_4.py,-0.7198469178051372 0.06959118067121872 -0.5767767040114361 0.02753043161150891 -0.49394864449807624 0.5036402089884157 -0.9089478104964928 0.5812038462805763 0.5755202513826466 -0.8596435611242278 
repo_new3/DataCodes3/371/b_371_42615_5.py,-0.7902479895293717 0.12047851015988041 -0.662186820129951 -0.03221331594254589 -0.6207133039328617 0.5749881375976166 -0.961517827277999 0.6645187789042211 0.6612837546804098 -1.022633844566137 
repo_new3/DataCodes3/371/b_371_42615_6.py,-0.7782528489994888 0.12400748314089953 -0.637863511345069 -0.02010130037808565 -0.6154218385965242 0.5711752619969378 -0.9527217262400138 0.6613002762296752 0.6577885515431868 -1.0148658416137977 
repo_new3/DataCodes3/371/c_371_42615_7.py,-0.764448987962597 0.118198875354158 -0.6248731972155862 -0.01188820102465401 -0.6011496591177465 0.5670476549501291 -0.956090226166882 0.6472353752792435 0.6461943079621285 -1.0008496571032184 
repo_new3/DataCodes3/362/c_362_2615_1.py,-0.8565578834702636 0.1307255012659841 -0.7828176521888474 -0.07598750346296683 -0.6266896653092711 0.6378054025691365 -1.0799829947613862 0.6636722542240892 0.6863897614731068 -1.0706342173718633 
repo_new3/DataCodes3/371/b_371_2615_1.py,-0.7745605207410302 0.11970976711518917 -0.630192706768053 -0.013756424828720299 -0.6058167502460758 0.5764524351476235 -0.9736951560238207 0.6511589519384529 0.6518947394895469 -1.0165422130854995 
repo_new3/DataCodes3/371/c_371_2615_2.py,-0.7745605207410302 0.11970976711518917 -0.630192706768053 -0.013756424828720299 -0.6058167502460758 0.5764524351476235 -0.9736951560238207 0.6511589519384529 0.6518947394895469 -1.0165422130854995 
repo_new3/DataCodes3/362/c_362_3151_1.py,-0.8565578834702636 0.1307255012659841 -0.7828176521888474 -0.07598750346296683 -0.6266896653092711 0.6378054025691365 -1.0799829947613862 0.6636722542240892 0.6863897614731068 -1.0706342173718633 
repo_new3/DataCodes3/371/b_371_3151_1.py,-0.7188640520750664 0.09833000381529985 -0.5828925987976286 -0.011316332224332055 -0.5538787415990616 0.5305414354911302 -0.9228989038261649 0.5942631192757555 0.5968343743486889 -0.9361493179382062 
repo_new3/DataCodes3/371/b_371_3151_2.py,-0.7242103064515938 0.09934093105255948 -0.5905353261439258 0.00777577009920211 -0.5431719502326914 0.5375093976174474 -0.9464034508976006 0.5996006176635451 0.6042021454423122 -0.9310653482931136 
repo_new3/DataCodes3/371/b_371_3151_3.py,-0.5722211314953334 0.04720176555521835 -0.48110232504130984 -0.02128638849656169 -0.4421328469188199 0.43071408172831815 -0.7840033712615052 0.4689795775306319 0.46201169843376433 -0.7795853173161278 
repo_new3/DataCodes3/371/b_371_3151_4.py,-0.6531454537795046 0.06991840275601793 -0.5465761457435375 -0.005554421405236269 -0.4829904276744068 0.4851054446851744 -0.8626540382445874 0.5377948529573836 0.5322710489178167 -0.8477039373272945 
repo_new3/DataCodes3/371/c_371_3151_5.py,-0.7591539592097397 0.11306759122266219 -0.6094857844506483 0.003262839360875222 -0.5805995582342912 0.5624610458461654 -0.957997047624201 0.6386184286947982 0.6375277998224631 -0.9815856807030818 
repo_new3/DataCodes3/362/c_362_32595_1.py,-0.8565578834702636 0.1307255012659841 -0.7828176521888474 -0.07598750346296683 -0.6266896653092711 0.6378054025691365 -1.0799829947613862 0.6636722542240892 0.6863897614731068 -1.0706342173718633 
repo_new3/DataCodes3/371/b_371_32595_1.py,-0.7242431392958685 0.08387021420177035 -0.626134464156848 0.0025424668467593625 -0.5253134178752992 0.5253130935463448 -0.9540135908208055 0.5859070930160988 0.5969515034526267 -0.8882228236502422 
repo_new3/DataCodes3/371/b_371_32595_2.py,-0.7242431392958685 0.08387021420177035 -0.626134464156848 0.0025424668467593625 -0.5253134178752992 0.5253130935463448 -0.9540135908208055 0.5859070930160988 0.5969515034526267 -0.8882228236502422 
repo_new3/DataCodes3/371/b_371_32595_3.py,-0.7388755149669127 0.09645974137394982 -0.6298010838642518 0.005448109728123196 -0.5434347305435479 0.5434681944949509 -0.972316249970747 0.6050936736686559 0.6164383782442805 -0.9193334110313478 
repo_new3/DataCodes3/371/b_371_32595_4.py,-0.7242103064515938 0.09934093105255948 -0.5905353261439258 0.00777577009920211 -0.5431719502326914 0.5375093976174474 -0.9464034508976006 0.5996006176635451 0.6042021454423122 -0.9310653482931136 
repo_new3/DataCodes3/371/c_371_32595_5.py,-0.764448987962597 0.118198875354158 -0.6248731972155862 -0.01188820102465401 -0.6011496591177465 0.5670476549501291 -0.956090226166882 0.6472353752792435 0.6461943079621285 -1.0008496571032184 
repo_new3/DataCodes3/362/b_362_25205_1.py,-0.7865736892882772 0.22221953113253515 -0.6811122571811044 -0.06862399639158236 -0.728396740601495 0.6273878089594721 -0.9074102297696993 0.7696051963502489 0.7589839988498149 -1.1199324709402134 
repo_new3/DataCodes3/362/c_362_25205_2.py,-0.8565578834702636 0.1307255012659841 -0.7828176521888474 -0.07598750346296683 -0.6266896653092711 0.6378054025691365 -1.0799829947613862 0.6636722542240892 0.6863897614731068 -1.0706342173718633 
repo_new3/DataCodes3/371/b_371_25205_1.py,-0.7473843750690075 0.10978032146844027 -0.6296169054612633 -0.005277152709221744 -0.5652886941537797 0.5560578919894855 -0.9756771160325038 0.619727551428653 0.6314596274258119 -0.9479142431831502 
repo_new3/DataCodes3/371/b_371_25205_2.py,-0.7581683839091367 0.11753775915650726 -0.6339806767819114 -0.0007261229740935885 -0.5826553951018364 0.5638098890705742 -0.9761616863153018 0.6384588891268831 0.6486255083576254 -0.9632726684048987 
repo_new3/DataCodes3/371/b_371_25205_3.py,-0.6675594280326095 0.0434672133863052 -0.5485429869920406 -0.0037501968661321473 -0.4592665522521307 0.48546836566957824 -0.9287030381160872 0.49751164394995867 0.507772423822897 -0.8430093195021839 
repo_new3/DataCodes3/371/b_371_25205_4.py,-0.6996286885966853 0.09016967927844649 -0.5610826090814343 0.02931604805819565 -0.5123113176793496 0.5078345514367981 -0.8773997777011323 0.5977993510962677 0.5870140103052801 -0.8690451978836695 
repo_new3/DataCodes3/371/b_371_25205_5.py,-0.6996286885966853 0.09016967927844649 -0.5610826090814343 0.02931604805819565 -0.5123113176793496 0.5078345514367981 -0.8773997777011323 0.5977993510962677 0.5870140103052801 -0.8690451978836695 
repo_new3/DataCodes3/371/b_371_25205_6.py,-0.688492012951029 0.09135255631678277 -0.5634089012391227 0.01936566230315179 -0.5124904983566446 0.5065908531375842 -0.8669597234386865 0.5912761554637166 0.5801716344682306 -0.8645294424789635 
repo_new3/DataCodes3/371/c_371_25205_7.py,-0.6420545428154955 0.0667043749625871 -0.5389318523656182 -0.020650214651920493 -0.48149831416266936 0.47801899840437767 -0.8570653454326872 0.5124078838958424 0.5137393523903984 -0.8426077249817426 
repo_new3/DataCodes3/362/b_362_16857_1.py,-0.9078406648244154 0.10858878830325608 -0.8328876590522165 -0.05777635582263084 -0.6095870118416213 0.6573394388762406 -1.1925225192074371 0.6535257292726722 0.696390028995294 -1.0749343816581145 
repo_new3/DataCodes3/362/c_362_16857_2.py,-0.8565578834702636 0.1307255012659841 -0.7828176521888474 -0.07598750346296683 -0.6266896653092711 0.6378054025691365 -1.0799829947613862 0.6636722542240892 0.6863897614731068 -1.0706342173718633 
repo_new3/DataCodes3/371/b_371_16857_1.py,-0.6716920939235614 0.06660508923917678 -0.5624812075883735 -0.025083146031135223 -0.49531685166925143 0.5015732995796136 -0.9136911372765222 0.5251335537962571 0.5301587554812611 -0.884059181795505 
repo_new3/DataCodes3/371/b_371_16857_2.py,-0.7298598868338161 0.09599204406303267 -0.6132267155412023 -0.031175074316395376 -0.5555001450991165 0.542990498135769 -0.9478972924022299 0.590546250340772 0.5937632251942013 -0.958531563080544 
repo_new3/DataCodes3/371/b_371_16857_3.py,-0.7298598868338161 0.09599204406303267 -0.6132267155412023 -0.031175074316395376 -0.5555001450991165 0.542990498135769 -0.9478972924022299 0.590546250340772 0.5937632251942013 -0.958531563080544 
repo_new3/DataCodes3/371/c_371_16857_4.py,-0.7298298924788416 0.10699974551448646 -0.6014397324938114 -0.004584689152211304 -0.5651930952161388 0.5402758120596005 -0.9139456614371959 0.6221387597495516 0.616480657262699 -0.9435587248409768 
repo_new3/DataCodes3/362/b_362_33578_1.py,-0.7944767071373809 0.22082915691664706 -0.6784282526084915 -0.06697893345619305 -0.7249444155928519 0.6391672035740249 -0.9353280549668169 0.7609891394902614 0.7524402877882598 -1.1383193552986977 
repo_new3/DataCodes3/362/c_362_33578_2.py,-0.8565578834702636 0.1307255012659841 -0.7828176521888474 -0.07598750346296683 -0.6266896653092711 0.6378054025691365 -1.0799829947613862 0.6636722542240892 0.6863897614731068 -1.0706342173718633 
repo_new3/DataCodes3/371/b_371_33578_1.py,-0.6362521753195961 0.06582317403796936 -0.5311492993018563 0.007458827699378904 -0.473908622006056 0.4621091631883341 -0.811306068404221 0.5356081992536617 0.5247719456895574 -0.7944573998661946 
repo_new3/DataCodes3/371/b_371_33578_2.py,-0.6670465610246528 0.07071087558269422 -0.5895560614501882 0.008460827957350751 -0.4878604169532589 0.48249241985039765 -0.8635731530496127 0.5580235744637954 0.5579755266180342 -0.8002984058875751 
repo_new3/DataCodes3/371/b_371_33578_3.py,-0.6362521753195961 0.06582317403796936 -0.5311492993018563 0.007458827699378904 -0.473908622006056 0.4621091631883341 -0.811306068404221 0.5356081992536617 0.5247719456895574 -0.7944573998661946 
repo_new3/DataCodes3/371/b_371_33578_4.py,-0.6362521753195961 0.06582317403796936 -0.5311492993018563 0.007458827699378904 -0.473908622006056 0.4621091631883341 -0.811306068404221 0.5356081992536617 0.5247719456895574 -0.7944573998661946 
repo_new3/DataCodes3/371/b_371_33578_5.py,-0.6610805553167503 0.08216919825062025 -0.5437122526747152 0.01044289035869507 -0.4996517940513574 0.4889166150108129 -0.8451987823530508 0.5625055704978342 0.5539237132280819 -0.8391319949090684 
repo_new3/DataCodes3/371/b_371_33578_6.py,-0.6819352145610879 0.09590158905038733 -0.5542632500885176 0.012949569922399653 -0.5212759402469622 0.5114351539327261 -0.8736674060701447 0.5850994504401935 0.5784111073731737 -0.8766586274418247 
repo_new3/DataCodes3/371/c_371_33578_7.py,-0.7387825474147364 0.10810132852428339 -0.6059448850597264 -0.006203349106538221 -0.5685423087489667 0.5488154658564899 -0.9302435236731975 0.6251554444040345 0.6211280473983878 -0.9573131837706836 
